digraph Tree {
node [shape=box, style="rounded", color="black", fontname=helvetica] ;
edge [fontname=helvetica] ;
0 [label="Total Amount of Fines in Dollars <= 0.0\ngini = 0.1\nsamples = 6137\nvalue = [[475, 9221]\n[9221, 475]]"] ;
1 [label="Rating Cycle 2 Total Number of Health Deficiencies <= 0.2\ngini = 0.1\nsamples = 4959\nvalue = [[214, 7615]\n[7615, 214]]"] ;
0 -> 1 [labeldistance=2.5, labelangle=45, headlabel="True"] ;
2 [label="Rating Cycle 1 Number of Standard Health Deficiencies <= 0.3\ngini = 0.0\nsamples = 4348\nvalue = [[134, 6724]\n[6724, 134]]"] ;
1 -> 2 ;
3 [label="Rating Cycle 1 Health Revisit Score <= 0.1\ngini = 0.0\nsamples = 4177\nvalue = [[109, 6472]\n[6472, 109]]"] ;
2 -> 3 ;
4 [label="Overall Rating <= 0.6\ngini = 0.0\nsamples = 4175\nvalue = [[106, 6472]\n[6472, 106]]"] ;
3 -> 4 ;
5 [label="Rating Cycle 1 Total Health Score <= 0.0\ngini = 0.1\nsamples = 1785\nvalue = [[93, 2763]\n[2763, 93]]"] ;
4 -> 5 ;
6 [label="RN Staffing Rating <= 0.4\ngini = 0.0\nsamples = 1522\nvalue = [[52, 2380]\n[2380, 52]]"] ;
5 -> 6 ;
7 [label="Ownership Type_Non profit - Church related <= 0.5\ngini = 0.0\nsamples = 854\nvalue = [[11, 1329]\n[1329, 11]]"] ;
6 -> 7 ;
8 [label="Health Inspection Rating <= 0.4\ngini = 0.0\nsamples = 841\nvalue = [[9, 1308]\n[1308, 9]]"] ;
7 -> 8 ;
9 [label="Number of Certified Beds <= 0.0\ngini = 0.0\nsamples = 349\nvalue = [[9, 520]\n[520, 9]]"] ;
8 -> 9 ;
10 [label="Rating Cycle 2 Total Health Score <= 0.0\ngini = 0.5\nsamples = 3\nvalue = [[2, 2]\n[2, 2]]"] ;
9 -> 10 ;
11 [label="gini = 0.0\nsamples = 1\nvalue = [[2, 0]\n[0, 2]]"] ;
10 -> 11 ;
12 [label="gini = 0.0\nsamples = 2\nvalue = [[0, 2]\n[2, 0]]"] ;
10 -> 12 ;
13 [label="Reported Nurse Aide Staffing Hours per Resident per Day <= 0.2\ngini = 0.0\nsamples = 346\nvalue = [[7, 518]\n[518, 7]]"] ;
9 -> 13 ;
14 [label="Total Weighted Health Survey Score <= 0.0\ngini = 0.2\nsamples = 5\nvalue = [[1, 7]\n[7, 1]]"] ;
13 -> 14 ;
15 [label="gini = 0.0\nsamples = 1\nvalue = [[1, 0]\n[0, 1]]"] ;
14 -> 15 ;
16 [label="gini = 0.0\nsamples = 4\nvalue = [[0, 7]\n[7, 0]]"] ;
14 -> 16 ;
17 [label="Case-Mix Nurse Aide Staffing Hours per Resident per Day <= 0.6\ngini = 0.0\nsamples = 341\nvalue = [[6, 511]\n[511, 6]]"] ;
13 -> 17 ;
18 [label="gini = 0.0\nsamples = 249\nvalue = [[0, 380]\n[380, 0]]"] ;
17 -> 18 ;
19 [label="Case-Mix Nurse Aide Staffing Hours per Resident per Day <= 0.6\ngini = 0.1\nsamples = 92\nvalue = [[6, 131]\n[131, 6]]"] ;
17 -> 19 ;
20 [label="gini = 0.0\nsamples = 1\nvalue = [[1, 0]\n[0, 1]]"] ;
19 -> 20 ;
21 [label="Total Number of Penalties <= 0.1\ngini = 0.1\nsamples = 91\nvalue = [[5, 131]\n[131, 5]]"] ;
19 -> 21 ;
22 [label="Ownership Type_For profit - Individual <= 0.5\ngini = 0.0\nsamples = 61\nvalue = [[1, 88]\n[88, 1]]"] ;
21 -> 22 ;
23 [label="gini = 0.0\nsamples = 57\nvalue = [[0, 84]\n[84, 0]]"] ;
22 -> 23 ;
24 [label="Short-Stay QM Rating <= 0.1\ngini = 0.3\nsamples = 4\nvalue = [[1, 4]\n[4, 1]]"] ;
22 -> 24 ;
25 [label="gini = 0.0\nsamples = 1\nvalue = [[1, 0]\n[0, 1]]"] ;
24 -> 25 ;
26 [label="gini = 0.0\nsamples = 3\nvalue = [[0, 4]\n[4, 0]]"] ;
24 -> 26 ;
27 [label="Adjusted RN Staffing Hours per Resident per Day <= 0.1\ngini = 0.2\nsamples = 30\nvalue = [[4, 43]\n[43, 4]]"] ;
21 -> 27 ;
28 [label="Short-Stay QM Rating <= 0.4\ngini = 0.3\nsamples = 16\nvalue = [[4, 21]\n[21, 4]]"] ;
27 -> 28 ;
29 [label="gini = 0.0\nsamples = 7\nvalue = [[0, 12]\n[12, 0]]"] ;
28 -> 29 ;
30 [label="QM Rating <= 0.4\ngini = 0.4\nsamples = 9\nvalue = [[4, 9]\n[9, 4]]"] ;
28 -> 30 ;
31 [label="gini = 0.0\nsamples = 1\nvalue = [[1, 0]\n[0, 1]]"] ;
30 -> 31 ;
32 [label="Reported Total Nurse Staffing Hours per Resident per Day <= 0.2\ngini = 0.4\nsamples = 8\nvalue = [[3, 9]\n[9, 3]]"] ;
30 -> 32 ;
33 [label="gini = 0.0\nsamples = 5\nvalue = [[0, 9]\n[9, 0]]"] ;
32 -> 33 ;
34 [label="gini = 0.0\nsamples = 3\nvalue = [[3, 0]\n[0, 3]]"] ;
32 -> 34 ;
35 [label="gini = 0.0\nsamples = 14\nvalue = [[0, 22]\n[22, 0]]"] ;
27 -> 35 ;
36 [label="gini = 0.0\nsamples = 492\nvalue = [[0, 788]\n[788, 0]]"] ;
8 -> 36 ;
37 [label="QM Rating <= 0.9\ngini = 0.2\nsamples = 13\nvalue = [[2, 21]\n[21, 2]]"] ;
7 -> 37 ;
38 [label="gini = 0.0\nsamples = 10\nvalue = [[0, 18]\n[18, 0]]"] ;
37 -> 38 ;
39 [label="Adjusted Nurse Aide Staffing Hours per Resident per Day <= 0.4\ngini = 0.5\nsamples = 3\nvalue = [[2, 3]\n[3, 2]]"] ;
37 -> 39 ;
40 [label="gini = 0.0\nsamples = 1\nvalue = [[2, 0]\n[0, 2]]"] ;
39 -> 40 ;
41 [label="gini = 0.0\nsamples = 2\nvalue = [[0, 3]\n[3, 0]]"] ;
39 -> 41 ;
42 [label="Health Inspection Rating <= 0.4\ngini = 0.1\nsamples = 668\nvalue = [[41, 1051]\n[1051, 41]]"] ;
6 -> 42 ;
43 [label="Reported Physical Therapist Staffing Hours per Resident Per Day <= 0.1\ngini = 0.1\nsamples = 427\nvalue = [[41, 646]\n[646, 41]]"] ;
42 -> 43 ;
44 [label="Rating Cycle 1 Number of Standard Health Deficiencies <= 0.1\ngini = 0.1\nsamples = 422\nvalue = [[37, 643]\n[643, 37]]"] ;
43 -> 44 ;
45 [label="Rating Cycle 1 Total Health Score <= 0.0\ngini = 0.2\nsamples = 212\nvalue = [[32, 316]\n[316, 32]]"] ;
44 -> 45 ;
46 [label="Reported Physical Therapist Staffing Hours per Resident Per Day <= 0.0\ngini = 0.1\nsamples = 149\nvalue = [[8, 233]\n[233, 8]]"] ;
45 -> 46 ;
47 [label="Rating Cycle 1 Number of Health Revisits <= 0.2\ngini = 0.3\nsamples = 12\nvalue = [[3, 17]\n[17, 3]]"] ;
46 -> 47 ;
48 [label="gini = 0.0\nsamples = 1\nvalue = [[3, 0]\n[0, 3]]"] ;
47 -> 48 ;
49 [label="gini = 0.0\nsamples = 11\nvalue = [[0, 17]\n[17, 0]]"] ;
47 -> 49 ;
50 [label="Rating Cycle 1 Number of Health Revisits <= 0.2\ngini = 0.0\nsamples = 137\nvalue = [[5, 216]\n[216, 5]]"] ;
46 -> 50 ;
51 [label="Average Number of Residents Per Day <= 0.1\ngini = 0.2\nsamples = 11\nvalue = [[2, 15]\n[15, 2]]"] ;
50 -> 51 ;
52 [label="gini = 0.0\nsamples = 1\nvalue = [[2, 0]\n[0, 2]]"] ;
51 -> 52 ;
53 [label="gini = 0.0\nsamples = 10\nvalue = [[0, 15]\n[15, 0]]"] ;
51 -> 53 ;
54 [label="Adjusted Nurse Aide Staffing Hours per Resident per Day <= 0.5\ngini = 0.0\nsamples = 126\nvalue = [[3, 201]\n[201, 3]]"] ;
50 -> 54 ;
55 [label="gini = 0.0\nsamples = 95\nvalue = [[0, 152]\n[152, 0]]"] ;
54 -> 55 ;
56 [label="RN Staffing Rating <= 0.6\ngini = 0.1\nsamples = 31\nvalue = [[3, 49]\n[49, 3]]"] ;
54 -> 56 ;
57 [label="Average Number of Residents Per Day <= 0.2\ngini = 0.2\nsamples = 12\nvalue = [[3, 19]\n[19, 3]]"] ;
56 -> 57 ;
58 [label="Reported RN Staffing Hours per Resident per Day <= 0.1\ngini = 0.2\nsamples = 11\nvalue = [[2, 19]\n[19, 2]]"] ;
57 -> 58 ;
59 [label="gini = 0.0\nsamples = 9\nvalue = [[0, 18]\n[18, 0]]"] ;
58 -> 59 ;
60 [label="Rating Cycle 2 Health Deficiency Score <= 0.0\ngini = 0.4\nsamples = 2\nvalue = [[2, 1]\n[1, 2]]"] ;
58 -> 60 ;
61 [label="gini = 0.0\nsamples = 1\nvalue = [[2, 0]\n[0, 2]]"] ;
60 -> 61 ;
62 [label="gini = 0.0\nsamples = 1\nvalue = [[0, 1]\n[1, 0]]"] ;
60 -> 62 ;
63 [label="gini = 0.0\nsamples = 1\nvalue = [[1, 0]\n[0, 1]]"] ;
57 -> 63 ;
64 [label="gini = 0.0\nsamples = 19\nvalue = [[0, 30]\n[30, 0]]"] ;
56 -> 64 ;
65 [label="Rating Cycle 2 Health Deficiency Score <= 0.0\ngini = 0.3\nsamples = 63\nvalue = [[24, 83]\n[83, 24]]"] ;
45 -> 65 ;
66 [label="Adjusted RN Staffing Hours per Resident per Day <= 0.1\ngini = 0.1\nsamples = 15\nvalue = [[1, 29]\n[29, 1]]"] ;
65 -> 66 ;
67 [label="Rating Cycle 1 Health Deficiency Score <= 0.0\ngini = 0.5\nsamples = 2\nvalue = [[1, 1]\n[1, 1]]"] ;
66 -> 67 ;
68 [label="gini = 0.0\nsamples = 1\nvalue = [[1, 0]\n[0, 1]]"] ;
67 -> 68 ;
69 [label="gini = 0.0\nsamples = 1\nvalue = [[0, 1]\n[1, 0]]"] ;
67 -> 69 ;
70 [label="gini = 0.0\nsamples = 13\nvalue = [[0, 28]\n[28, 0]]"] ;
66 -> 70 ;
71 [label="Rating Cycle 2 Number of Complaint Health Deficiencies <= 0.0\ngini = 0.4\nsamples = 48\nvalue = [[23, 54]\n[54, 23]]"] ;
65 -> 71 ;
72 [label="Rating Cycle 2 Number of Standard Health Deficiencies <= 0.2\ngini = 0.5\nsamples = 27\nvalue = [[21, 24]\n[24, 21]]"] ;
71 -> 72 ;
73 [label="Long-Stay QM Rating <= 0.9\ngini = 0.5\nsamples = 22\nvalue = [[21, 17]\n[17, 21]]"] ;
72 -> 73 ;
74 [label="QM Rating <= 0.6\ngini = 0.5\nsamples = 15\nvalue = [[10, 16]\n[16, 10]]"] ;
73 -> 74 ;
75 [label="Adjusted Nurse Aide Staffing Hours per Resident per Day <= 0.4\ngini = 0.5\nsamples = 9\nvalue = [[10, 7]\n[7, 10]]"] ;
74 -> 75 ;
76 [label="gini = 0.0\nsamples = 4\nvalue = [[10, 0]\n[0, 10]]"] ;
75 -> 76 ;
77 [label="gini = 0.0\nsamples = 5\nvalue = [[0, 7]\n[7, 0]]"] ;
75 -> 77 ;
78 [label="gini = 0.0\nsamples = 6\nvalue = [[0, 9]\n[9, 0]]"] ;
74 -> 78 ;
79 [label="Number of Substantiated Complaints <= 0.0\ngini = 0.2\nsamples = 7\nvalue = [[11, 1]\n[1, 11]]"] ;
73 -> 79 ;
80 [label="gini = 0.0\nsamples = 6\nvalue = [[11, 0]\n[0, 11]]"] ;
79 -> 80 ;
81 [label="gini = 0.0\nsamples = 1\nvalue = [[0, 1]\n[1, 0]]"] ;
79 -> 81 ;
82 [label="gini = 0.0\nsamples = 5\nvalue = [[0, 7]\n[7, 0]]"] ;
72 -> 82 ;
83 [label="Rating Cycle 2 Number of Health Revisits <= 0.4\ngini = 0.1\nsamples = 21\nvalue = [[2, 30]\n[30, 2]]"] ;
71 -> 83 ;
84 [label="Adjusted LPN Staffing Hours per Resident per Day <= 0.3\ngini = 0.1\nsamples = 20\nvalue = [[1, 30]\n[30, 1]]"] ;
83 -> 84 ;
85 [label="gini = 0.0\nsamples = 17\nvalue = [[0, 27]\n[27, 0]]"] ;
84 -> 85 ;
86 [label="Adjusted Total Nurse Staffing Hours per Resident per Day <= 0.4\ngini = 0.4\nsamples = 3\nvalue = [[1, 3]\n[3, 1]]"] ;
84 -> 86 ;
87 [label="gini = 0.0\nsamples = 1\nvalue = [[1, 0]\n[0, 1]]"] ;
86 -> 87 ;
88 [label="gini = 0.0\nsamples = 2\nvalue = [[0, 3]\n[3, 0]]"] ;
86 -> 88 ;
89 [label="gini = 0.0\nsamples = 1\nvalue = [[1, 0]\n[0, 1]]"] ;
83 -> 89 ;
90 [label="Ownership Type_Government - Hospital district <= 0.5\ngini = 0.0\nsamples = 210\nvalue = [[5, 327]\n[327, 5]]"] ;
44 -> 90 ;
91 [label="Case-Mix RN Staffing Hours per Resident per Day <= 0.0\ngini = 0.0\nsamples = 209\nvalue = [[4, 327]\n[327, 4]]"] ;
90 -> 91 ;
92 [label="gini = 0.0\nsamples = 1\nvalue = [[1, 0]\n[0, 1]]"] ;
91 -> 92 ;
93 [label="Average Number of Residents Per Day <= 0.0\ngini = 0.0\nsamples = 208\nvalue = [[3, 327]\n[327, 3]]"] ;
91 -> 93 ;
94 [label="Rating Cycle 2 Total Health Score <= 0.1\ngini = 0.5\nsamples = 2\nvalue = [[1, 1]\n[1, 1]]"] ;
93 -> 94 ;
95 [label="gini = 0.0\nsamples = 1\nvalue = [[1, 0]\n[0, 1]]"] ;
94 -> 95 ;
96 [label="gini = 0.0\nsamples = 1\nvalue = [[0, 1]\n[1, 0]]"] ;
94 -> 96 ;
97 [label="Rating Cycle 2 Number of Health Revisits <= 0.1\ngini = 0.0\nsamples = 206\nvalue = [[2, 326]\n[326, 2]]"] ;
93 -> 97 ;
98 [label="Reported Nurse Aide Staffing Hours per Resident per Day <= 0.3\ngini = 0.1\nsamples = 9\nvalue = [[1, 13]\n[13, 1]]"] ;
97 -> 98 ;
99 [label="Adjusted RN Staffing Hours per Resident per Day <= 0.2\ngini = 0.5\nsamples = 2\nvalue = [[1, 1]\n[1, 1]]"] ;
98 -> 99 ;
100 [label="gini = 0.0\nsamples = 1\nvalue = [[0, 1]\n[1, 0]]"] ;
99 -> 100 ;
101 [label="gini = 0.0\nsamples = 1\nvalue = [[1, 0]\n[0, 1]]"] ;
99 -> 101 ;
102 [label="gini = 0.0\nsamples = 7\nvalue = [[0, 12]\n[12, 0]]"] ;
98 -> 102 ;
103 [label="Rating Cycle 2 Total Health Score <= 0.0\ngini = 0.0\nsamples = 197\nvalue = [[1, 313]\n[313, 1]]"] ;
97 -> 103 ;
104 [label="Rating Cycle 1 Total Number of Health Deficiencies <= 0.1\ngini = 0.1\nsamples = 18\nvalue = [[1, 25]\n[25, 1]]"] ;
103 -> 104 ;
105 [label="Number of Fines <= 0.1\ngini = 0.4\nsamples = 3\nvalue = [[1, 3]\n[3, 1]]"] ;
104 -> 105 ;
106 [label="gini = 0.0\nsamples = 2\nvalue = [[0, 3]\n[3, 0]]"] ;
105 -> 106 ;
107 [label="gini = 0.0\nsamples = 1\nvalue = [[1, 0]\n[0, 1]]"] ;
105 -> 107 ;
108 [label="gini = 0.0\nsamples = 15\nvalue = [[0, 22]\n[22, 0]]"] ;
104 -> 108 ;
109 [label="gini = 0.0\nsamples = 179\nvalue = [[0, 288]\n[288, 0]]"] ;
103 -> 109 ;
110 [label="gini = 0.0\nsamples = 1\nvalue = [[1, 0]\n[0, 1]]"] ;
90 -> 110 ;
111 [label="Adjusted Total Nurse Staffing Hours per Resident per Day <= 0.5\ngini = 0.5\nsamples = 5\nvalue = [[4, 3]\n[3, 4]]"] ;
43 -> 111 ;
112 [label="gini = 0.0\nsamples = 3\nvalue = [[0, 3]\n[3, 0]]"] ;
111 -> 112 ;
113 [label="gini = 0.0\nsamples = 2\nvalue = [[4, 0]\n[0, 4]]"] ;
111 -> 113 ;
114 [label="gini = 0.0\nsamples = 241\nvalue = [[0, 405]\n[405, 0]]"] ;
42 -> 114 ;
115 [label="Reported RN Staffing Hours per Resident per Day <= 0.1\ngini = 0.2\nsamples = 263\nvalue = [[41, 383]\n[383, 41]]"] ;
5 -> 115 ;
116 [label="Reported Licensed Staffing Hours per Resident per Day <= 0.1\ngini = 0.1\nsamples = 225\nvalue = [[25, 333]\n[333, 25]]"] ;
115 -> 116 ;
117 [label="Average Number of Residents Per Day <= 0.2\ngini = 0.3\nsamples = 35\nvalue = [[10, 38]\n[38, 10]]"] ;
116 -> 117 ;
118 [label="Total Number of Penalties <= 0.1\ngini = 0.2\nsamples = 30\nvalue = [[6, 36]\n[36, 6]]"] ;
117 -> 118 ;
119 [label="Case-Mix Nurse Aide Staffing Hours per Resident per Day <= 0.7\ngini = 0.1\nsamples = 18\nvalue = [[1, 23]\n[23, 1]]"] ;
118 -> 119 ;
120 [label="gini = 0.0\nsamples = 15\nvalue = [[0, 21]\n[21, 0]]"] ;
119 -> 120 ;
121 [label="Reported RN Staffing Hours per Resident per Day <= 0.0\ngini = 0.4\nsamples = 3\nvalue = [[1, 2]\n[2, 1]]"] ;
119 -> 121 ;
122 [label="gini = 0.0\nsamples = 1\nvalue = [[1, 0]\n[0, 1]]"] ;
121 -> 122 ;
123 [label="gini = 0.0\nsamples = 2\nvalue = [[0, 2]\n[2, 0]]"] ;
121 -> 123 ;
124 [label="Adjusted Nurse Aide Staffing Hours per Resident per Day <= 0.3\ngini = 0.4\nsamples = 12\nvalue = [[5, 13]\n[13, 5]]"] ;
118 -> 124 ;
125 [label="gini = 0.0\nsamples = 4\nvalue = [[0, 6]\n[6, 0]]"] ;
124 -> 125 ;
126 [label="QM Rating <= 0.6\ngini = 0.5\nsamples = 8\nvalue = [[5, 7]\n[7, 5]]"] ;
124 -> 126 ;
127 [label="Case-Mix Nurse Aide Staffing Hours per Resident per Day <= 0.5\ngini = 0.3\nsamples = 6\nvalue = [[2, 7]\n[7, 2]]"] ;
126 -> 127 ;
128 [label="Adjusted Total Nurse Staffing Hours per Resident per Day <= 0.3\ngini = 0.2\nsamples = 5\nvalue = [[1, 7]\n[7, 1]]"] ;
127 -> 128 ;
129 [label="gini = 0.0\nsamples = 3\nvalue = [[0, 5]\n[5, 0]]"] ;
128 -> 129 ;
130 [label="Adjusted LPN Staffing Hours per Resident per Day <= 0.2\ngini = 0.4\nsamples = 2\nvalue = [[1, 2]\n[2, 1]]"] ;
128 -> 130 ;
131 [label="gini = 0.0\nsamples = 1\nvalue = [[0, 2]\n[2, 0]]"] ;
130 -> 131 ;
132 [label="gini = 0.0\nsamples = 1\nvalue = [[1, 0]\n[0, 1]]"] ;
130 -> 132 ;
133 [label="gini = 0.0\nsamples = 1\nvalue = [[1, 0]\n[0, 1]]"] ;
127 -> 133 ;
134 [label="gini = 0.0\nsamples = 2\nvalue = [[3, 0]\n[0, 3]]"] ;
126 -> 134 ;
135 [label="Reported RN Staffing Hours per Resident per Day <= 0.1\ngini = 0.4\nsamples = 5\nvalue = [[4, 2]\n[2, 4]]"] ;
117 -> 135 ;
136 [label="Rating Cycle 1 Number of Complaint Health Deficiencies <= 0.0\ngini = 0.3\nsamples = 4\nvalue = [[4, 1]\n[1, 4]]"] ;
135 -> 136 ;
137 [label="gini = 0.0\nsamples = 1\nvalue = [[0, 1]\n[1, 0]]"] ;
136 -> 137 ;
138 [label="gini = 0.0\nsamples = 3\nvalue = [[4, 0]\n[0, 4]]"] ;
136 -> 138 ;
139 [label="gini = 0.0\nsamples = 1\nvalue = [[0, 1]\n[1, 0]]"] ;
135 -> 139 ;
140 [label="Total Weighted Health Survey Score <= 0.3\ngini = 0.1\nsamples = 190\nvalue = [[15, 295]\n[295, 15]]"] ;
116 -> 140 ;
141 [label="Number of Certified Beds <= 0.1\ngini = 0.1\nsamples = 189\nvalue = [[14, 295]\n[295, 14]]"] ;
140 -> 141 ;
142 [label="Rating Cycle 2 Health Revisit Score <= 0.0\ngini = 0.0\nsamples = 127\nvalue = [[5, 205]\n[205, 5]]"] ;
141 -> 142 ;
143 [label="Case-Mix LPN Staffing Hours per Resident per Day <= 0.5\ngini = 0.0\nsamples = 126\nvalue = [[4, 205]\n[205, 4]]"] ;
142 -> 143 ;
144 [label="Adjusted Total Nurse Staffing Hours per Resident per Day <= 0.2\ngini = 0.0\nsamples = 125\nvalue = [[3, 205]\n[205, 3]]"] ;
143 -> 144 ;
145 [label="QM Rating <= 0.4\ngini = 0.1\nsamples = 27\nvalue = [[2, 38]\n[38, 2]]"] ;
144 -> 145 ;
146 [label="gini = 0.0\nsamples = 16\nvalue = [[0, 25]\n[25, 0]]"] ;
145 -> 146 ;
147 [label="Rating Cycle 2 Health Deficiency Score <= 0.0\ngini = 0.2\nsamples = 11\nvalue = [[2, 13]\n[13, 2]]"] ;
145 -> 147 ;
148 [label="gini = 0.0\nsamples = 1\nvalue = [[1, 0]\n[0, 1]]"] ;
147 -> 148 ;
149 [label="Rating Cycle 2 Number of Complaint Health Deficiencies <= 0.1\ngini = 0.1\nsamples = 10\nvalue = [[1, 13]\n[13, 1]]"] ;
147 -> 149 ;
150 [label="gini = 0.0\nsamples = 9\nvalue = [[0, 13]\n[13, 0]]"] ;
149 -> 150 ;
151 [label="gini = 0.0\nsamples = 1\nvalue = [[1, 0]\n[0, 1]]"] ;
149 -> 151 ;
152 [label="Rating Cycle 1 Number of Health Revisits <= 0.2\ngini = 0.0\nsamples = 98\nvalue = [[1, 167]\n[167, 1]]"] ;
144 -> 152 ;
153 [label="Adjusted Total Nurse Staffing Hours per Resident per Day <= 0.3\ngini = 0.2\nsamples = 7\nvalue = [[1, 11]\n[11, 1]]"] ;
152 -> 153 ;
154 [label="gini = 0.0\nsamples = 6\nvalue = [[0, 11]\n[11, 0]]"] ;
153 -> 154 ;
155 [label="gini = 0.0\nsamples = 1\nvalue = [[1, 0]\n[0, 1]]"] ;
153 -> 155 ;
156 [label="gini = 0.0\nsamples = 91\nvalue = [[0, 156]\n[156, 0]]"] ;
152 -> 156 ;
157 [label="gini = 0.0\nsamples = 1\nvalue = [[1, 0]\n[0, 1]]"] ;
143 -> 157 ;
158 [label="gini = 0.0\nsamples = 1\nvalue = [[1, 0]\n[0, 1]]"] ;
142 -> 158 ;
159 [label="Rating Cycle 1 Total Number of Health Deficiencies <= 0.1\ngini = 0.2\nsamples = 62\nvalue = [[9, 90]\n[90, 9]]"] ;
141 -> 159 ;
160 [label="Case-Mix RN Staffing Hours per Resident per Day <= 0.1\ngini = 0.3\nsamples = 28\nvalue = [[9, 37]\n[37, 9]]"] ;
159 -> 160 ;
161 [label="Number of Certified Beds <= 0.1\ngini = 0.4\nsamples = 23\nvalue = [[9, 26]\n[26, 9]]"] ;
160 -> 161 ;
162 [label="gini = 0.0\nsamples = 1\nvalue = [[2, 0]\n[0, 2]]"] ;
161 -> 162 ;
163 [label="Reported Nurse Aide Staffing Hours per Resident per Day <= 0.4\ngini = 0.3\nsamples = 22\nvalue = [[7, 26]\n[26, 7]]"] ;
161 -> 163 ;
164 [label="gini = 0.0\nsamples = 11\nvalue = [[0, 18]\n[18, 0]]"] ;
163 -> 164 ;
165 [label="Case-Mix RN Staffing Hours per Resident per Day <= 0.1\ngini = 0.5\nsamples = 11\nvalue = [[7, 8]\n[8, 7]]"] ;
163 -> 165 ;
166 [label="Adjusted Nurse Aide Staffing Hours per Resident per Day <= 0.4\ngini = 0.4\nsamples = 8\nvalue = [[3, 8]\n[8, 3]]"] ;
165 -> 166 ;
167 [label="gini = 0.0\nsamples = 2\nvalue = [[3, 0]\n[0, 3]]"] ;
166 -> 167 ;
168 [label="gini = 0.0\nsamples = 6\nvalue = [[0, 8]\n[8, 0]]"] ;
166 -> 168 ;
169 [label="gini = 0.0\nsamples = 3\nvalue = [[4, 0]\n[0, 4]]"] ;
165 -> 169 ;
170 [label="gini = 0.0\nsamples = 5\nvalue = [[0, 11]\n[11, 0]]"] ;
160 -> 170 ;
171 [label="gini = 0.0\nsamples = 34\nvalue = [[0, 53]\n[53, 0]]"] ;
159 -> 171 ;
172 [label="gini = 0.0\nsamples = 1\nvalue = [[1, 0]\n[0, 1]]"] ;
140 -> 172 ;
173 [label="Reported Licensed Staffing Hours per Resident per Day <= 0.2\ngini = 0.4\nsamples = 38\nvalue = [[16, 50]\n[50, 16]]"] ;
115 -> 173 ;
174 [label="gini = 0.0\nsamples = 1\nvalue = [[2, 0]\n[0, 2]]"] ;
173 -> 174 ;
175 [label="Average Number of Residents Per Day <= 0.2\ngini = 0.3\nsamples = 37\nvalue = [[14, 50]\n[50, 14]]"] ;
173 -> 175 ;
176 [label="Adjusted Total Nurse Staffing Hours per Resident per Day <= 0.6\ngini = 0.2\nsamples = 31\nvalue = [[7, 47]\n[47, 7]]"] ;
175 -> 176 ;
177 [label="Reported Total Nurse Staffing Hours per Resident per Day <= 0.2\ngini = 0.2\nsamples = 30\nvalue = [[6, 47]\n[47, 6]]"] ;
176 -> 177 ;
178 [label="gini = 0.0\nsamples = 1\nvalue = [[3, 0]\n[0, 3]]"] ;
177 -> 178 ;
179 [label="Rating Cycle 1 Total Number of Health Deficiencies <= 0.1\ngini = 0.1\nsamples = 29\nvalue = [[3, 47]\n[47, 3]]"] ;
177 -> 179 ;
180 [label="Rating Cycle 2 Total Number of Health Deficiencies <= 0.1\ngini = 0.5\nsamples = 3\nvalue = [[2, 3]\n[3, 2]]"] ;
179 -> 180 ;
181 [label="gini = 0.0\nsamples = 2\nvalue = [[2, 0]\n[0, 2]]"] ;
180 -> 181 ;
182 [label="gini = 0.0\nsamples = 1\nvalue = [[0, 3]\n[3, 0]]"] ;
180 -> 182 ;
183 [label="Rating Cycle 1 Health Deficiency Score <= 0.2\ngini = 0.0\nsamples = 26\nvalue = [[1, 44]\n[44, 1]]"] ;
179 -> 183 ;
184 [label="gini = 0.0\nsamples = 24\nvalue = [[0, 41]\n[41, 0]]"] ;
183 -> 184 ;
185 [label="Ownership Type_For profit - Limited Liability company <= 0.5\ngini = 0.4\nsamples = 2\nvalue = [[1, 3]\n[3, 1]]"] ;
183 -> 185 ;
186 [label="gini = 0.0\nsamples = 1\nvalue = [[1, 0]\n[0, 1]]"] ;
185 -> 186 ;
187 [label="gini = 0.0\nsamples = 1\nvalue = [[0, 3]\n[3, 0]]"] ;
185 -> 187 ;
188 [label="gini = 0.0\nsamples = 1\nvalue = [[1, 0]\n[0, 1]]"] ;
176 -> 188 ;
189 [label="Rating Cycle 1 Health Deficiency Score <= 0.1\ngini = 0.4\nsamples = 6\nvalue = [[7, 3]\n[3, 7]]"] ;
175 -> 189 ;
190 [label="gini = 0.0\nsamples = 3\nvalue = [[5, 0]\n[0, 5]]"] ;
189 -> 190 ;
191 [label="Number of Certified Beds <= 0.2\ngini = 0.5\nsamples = 3\nvalue = [[2, 3]\n[3, 2]]"] ;
189 -> 191 ;
192 [label="gini = 0.0\nsamples = 2\nvalue = [[0, 3]\n[3, 0]]"] ;
191 -> 192 ;
193 [label="gini = 0.0\nsamples = 1\nvalue = [[2, 0]\n[0, 2]]"] ;
191 -> 193 ;
194 [label="Rating Cycle 1 Total Health Score <= 0.0\ngini = 0.0\nsamples = 2390\nvalue = [[13, 3709]\n[3709, 13]]"] ;
4 -> 194 ;
195 [label="Number of Facility Reported Incidents <= 0.1\ngini = 0.0\nsamples = 2386\nvalue = [[12, 3703]\n[3703, 12]]"] ;
194 -> 195 ;
196 [label="Health Inspection Rating <= 0.4\ngini = 0.0\nsamples = 2368\nvalue = [[7, 3679]\n[3679, 7]]"] ;
195 -> 196 ;
197 [label="Reported LPN Staffing Hours per Resident per Day <= 0.2\ngini = 0.1\nsamples = 84\nvalue = [[7, 126]\n[126, 7]]"] ;
196 -> 197 ;
198 [label="Rating Cycle 1 Number of Standard Health Deficiencies <= 0.2\ngini = 0.0\nsamples = 64\nvalue = [[1, 98]\n[98, 1]]"] ;
197 -> 198 ;
199 [label="gini = 0.0\nsamples = 60\nvalue = [[0, 94]\n[94, 0]]"] ;
198 -> 199 ;
200 [label="Rating Cycle 2 Number of Standard Health Deficiencies <= 0.1\ngini = 0.3\nsamples = 4\nvalue = [[1, 4]\n[4, 1]]"] ;
198 -> 200 ;
201 [label="gini = 0.0\nsamples = 3\nvalue = [[0, 4]\n[4, 0]]"] ;
200 -> 201 ;
202 [label="gini = 0.0\nsamples = 1\nvalue = [[1, 0]\n[0, 1]]"] ;
200 -> 202 ;
203 [label="Reported LPN Staffing Hours per Resident per Day <= 0.2\ngini = 0.3\nsamples = 20\nvalue = [[6, 28]\n[28, 6]]"] ;
197 -> 203 ;
204 [label="gini = 0.0\nsamples = 1\nvalue = [[4, 0]\n[0, 4]]"] ;
203 -> 204 ;
205 [label="Rating Cycle 1 Total Number of Health Deficiencies <= 0.1\ngini = 0.1\nsamples = 19\nvalue = [[2, 28]\n[28, 2]]"] ;
203 -> 205 ;
206 [label="gini = 0.0\nsamples = 15\nvalue = [[0, 23]\n[23, 0]]"] ;
205 -> 206 ;
207 [label="Rating Cycle 2 Health Deficiency Score <= 0.0\ngini = 0.4\nsamples = 4\nvalue = [[2, 5]\n[5, 2]]"] ;
205 -> 207 ;
208 [label="gini = 0.0\nsamples = 1\nvalue = [[2, 0]\n[0, 2]]"] ;
207 -> 208 ;
209 [label="gini = 0.0\nsamples = 3\nvalue = [[0, 5]\n[5, 0]]"] ;
207 -> 209 ;
210 [label="gini = 0.0\nsamples = 2284\nvalue = [[0, 3553]\n[3553, 0]]"] ;
196 -> 210 ;
211 [label="Health Inspection Rating <= 0.4\ngini = 0.3\nsamples = 18\nvalue = [[5, 24]\n[24, 5]]"] ;
195 -> 211 ;
212 [label="Reported Physical Therapist Staffing Hours per Resident Per Day <= 0.0\ngini = 0.3\nsamples = 4\nvalue = [[5, 1]\n[1, 5]]"] ;
211 -> 212 ;
213 [label="gini = 0.0\nsamples = 3\nvalue = [[5, 0]\n[0, 5]]"] ;
212 -> 213 ;
214 [label="gini = 0.0\nsamples = 1\nvalue = [[0, 1]\n[1, 0]]"] ;
212 -> 214 ;
215 [label="gini = 0.0\nsamples = 14\nvalue = [[0, 23]\n[23, 0]]"] ;
211 -> 215 ;
216 [label="Case-Mix Total Nurse Staffing Hours per Resident per Day <= 0.4\ngini = 0.2\nsamples = 4\nvalue = [[1, 6]\n[6, 1]]"] ;
194 -> 216 ;
217 [label="gini = 0.0\nsamples = 3\nvalue = [[0, 6]\n[6, 0]]"] ;
216 -> 217 ;
218 [label="gini = 0.0\nsamples = 1\nvalue = [[1, 0]\n[0, 1]]"] ;
216 -> 218 ;
219 [label="gini = 0.0\nsamples = 2\nvalue = [[3, 0]\n[0, 3]]"] ;
3 -> 219 ;
220 [label="Total Weighted Health Survey Score <= 0.1\ngini = 0.2\nsamples = 171\nvalue = [[25, 252]\n[252, 25]]"] ;
2 -> 220 ;
221 [label="Number of Certified Beds <= 0.0\ngini = 0.1\nsamples = 155\nvalue = [[13, 237]\n[237, 13]]"] ;
220 -> 221 ;
222 [label="Rating Cycle 1 Total Number of Health Deficiencies <= 0.2\ngini = 0.3\nsamples = 2\nvalue = [[4, 1]\n[1, 4]]"] ;
221 -> 222 ;
223 [label="gini = 0.0\nsamples = 1\nvalue = [[4, 0]\n[0, 4]]"] ;
222 -> 223 ;
224 [label="gini = 0.0\nsamples = 1\nvalue = [[0, 1]\n[1, 0]]"] ;
222 -> 224 ;
225 [label="Rating Cycle 1 Health Deficiency Score <= 0.2\ngini = 0.1\nsamples = 153\nvalue = [[9, 236]\n[236, 9]]"] ;
221 -> 225 ;
226 [label="Number of Certified Beds <= 0.0\ngini = 0.0\nsamples = 150\nvalue = [[6, 234]\n[234, 6]]"] ;
225 -> 226 ;
227 [label="Reported Physical Therapist Staffing Hours per Resident Per Day <= 0.0\ngini = 0.3\nsamples = 5\nvalue = [[2, 7]\n[7, 2]]"] ;
226 -> 227 ;
228 [label="gini = 0.0\nsamples = 1\nvalue = [[2, 0]\n[0, 2]]"] ;
227 -> 228 ;
229 [label="gini = 0.0\nsamples = 4\nvalue = [[0, 7]\n[7, 0]]"] ;
227 -> 229 ;
230 [label="Rating Cycle 2 Health Deficiency Score <= 0.0\ngini = 0.0\nsamples = 145\nvalue = [[4, 227]\n[227, 4]]"] ;
226 -> 230 ;
231 [label="Number of Substantiated Complaints <= 0.2\ngini = 0.2\nsamples = 19\nvalue = [[2, 18]\n[18, 2]]"] ;
230 -> 231 ;
232 [label="Number of Fines <= 0.1\ngini = 0.1\nsamples = 18\nvalue = [[1, 18]\n[18, 1]]"] ;
231 -> 232 ;
233 [label="gini = 0.0\nsamples = 13\nvalue = [[0, 14]\n[14, 0]]"] ;
232 -> 233 ;
234 [label="Number of Certified Beds <= 0.1\ngini = 0.3\nsamples = 5\nvalue = [[1, 4]\n[4, 1]]"] ;
232 -> 234 ;
235 [label="gini = 0.0\nsamples = 1\nvalue = [[1, 0]\n[0, 1]]"] ;
234 -> 235 ;
236 [label="gini = 0.0\nsamples = 4\nvalue = [[0, 4]\n[4, 0]]"] ;
234 -> 236 ;
237 [label="gini = 0.0\nsamples = 1\nvalue = [[1, 0]\n[0, 1]]"] ;
231 -> 237 ;
238 [label="Rating Cycle 1 Number of Standard Health Deficiencies <= 0.3\ngini = 0.0\nsamples = 126\nvalue = [[2, 209]\n[209, 2]]"] ;
230 -> 238 ;
239 [label="Ownership Type_Non profit - Corporation <= 0.5\ngini = 0.1\nsamples = 26\nvalue = [[2, 41]\n[41, 2]]"] ;
238 -> 239 ;
240 [label="gini = 0.0\nsamples = 21\nvalue = [[0, 35]\n[35, 0]]"] ;
239 -> 240 ;
241 [label="Rating Cycle 2 Total Health Score <= 0.0\ngini = 0.4\nsamples = 5\nvalue = [[2, 6]\n[6, 2]]"] ;
239 -> 241 ;
242 [label="gini = 0.0\nsamples = 4\nvalue = [[0, 6]\n[6, 0]]"] ;
241 -> 242 ;
243 [label="gini = 0.0\nsamples = 1\nvalue = [[2, 0]\n[0, 2]]"] ;
241 -> 243 ;
244 [label="gini = 0.0\nsamples = 100\nvalue = [[0, 168]\n[168, 0]]"] ;
238 -> 244 ;
245 [label="Reported LPN Staffing Hours per Resident per Day <= 0.2\ngini = 0.5\nsamples = 3\nvalue = [[3, 2]\n[2, 3]]"] ;
225 -> 245 ;
246 [label="gini = 0.0\nsamples = 1\nvalue = [[3, 0]\n[0, 3]]"] ;
245 -> 246 ;
247 [label="gini = 0.0\nsamples = 2\nvalue = [[0, 2]\n[2, 0]]"] ;
245 -> 247 ;
248 [label="Average Number of Residents Per Day <= 0.1\ngini = 0.5\nsamples = 16\nvalue = [[12, 15]\n[15, 12]]"] ;
220 -> 248 ;
249 [label="Case-Mix Nurse Aide Staffing Hours per Resident per Day <= 0.5\ngini = 0.4\nsamples = 9\nvalue = [[10, 4]\n[4, 10]]"] ;
248 -> 249 ;
250 [label="Rating Cycle 1 Health Revisit Score <= 0.0\ngini = 0.5\nsamples = 6\nvalue = [[3, 4]\n[4, 3]]"] ;
249 -> 250 ;
251 [label="gini = 0.0\nsamples = 3\nvalue = [[3, 0]\n[0, 3]]"] ;
250 -> 251 ;
252 [label="gini = 0.0\nsamples = 3\nvalue = [[0, 4]\n[4, 0]]"] ;
250 -> 252 ;
253 [label="gini = 0.0\nsamples = 3\nvalue = [[7, 0]\n[0, 7]]"] ;
249 -> 253 ;
254 [label="Reported RN Staffing Hours per Resident per Day <= 0.1\ngini = 0.3\nsamples = 7\nvalue = [[2, 11]\n[11, 2]]"] ;
248 -> 254 ;
255 [label="Case-Mix RN Staffing Hours per Resident per Day <= 0.1\ngini = 0.4\nsamples = 2\nvalue = [[2, 1]\n[1, 2]]"] ;
254 -> 255 ;
256 [label="gini = 0.0\nsamples = 1\nvalue = [[0, 1]\n[1, 0]]"] ;
255 -> 256 ;
257 [label="gini = 0.0\nsamples = 1\nvalue = [[2, 0]\n[0, 2]]"] ;
255 -> 257 ;
258 [label="gini = 0.0\nsamples = 5\nvalue = [[0, 10]\n[10, 0]]"] ;
254 -> 258 ;
259 [label="Case-Mix LPN Staffing Hours per Resident per Day <= 0.1\ngini = 0.2\nsamples = 611\nvalue = [[80, 891]\n[891, 80]]"] ;
1 -> 259 ;
260 [label="Case-Mix Nurse Aide Staffing Hours per Resident per Day <= 0.1\ngini = 0.4\nsamples = 5\nvalue = [[6, 3]\n[3, 6]]"] ;
259 -> 260 ;
261 [label="gini = 0.0\nsamples = 1\nvalue = [[0, 2]\n[2, 0]]"] ;
260 -> 261 ;
262 [label="Adjusted RN Staffing Hours per Resident per Day <= 0.1\ngini = 0.2\nsamples = 4\nvalue = [[6, 1]\n[1, 6]]"] ;
260 -> 262 ;
263 [label="gini = 0.0\nsamples = 3\nvalue = [[6, 0]\n[0, 6]]"] ;
262 -> 263 ;
264 [label="gini = 0.0\nsamples = 1\nvalue = [[0, 1]\n[1, 0]]"] ;
262 -> 264 ;
265 [label="Number of Certified Beds <= 0.7\ngini = 0.1\nsamples = 606\nvalue = [[74, 888]\n[888, 74]]"] ;
259 -> 265 ;
266 [label="Rating Cycle 2 Total Health Score <= 0.4\ngini = 0.1\nsamples = 605\nvalue = [[70, 888]\n[888, 70]]"] ;
265 -> 266 ;
267 [label="Rating Cycle 2 Total Number of Health Deficiencies <= 0.5\ngini = 0.1\nsamples = 603\nvalue = [[68, 887]\n[887, 68]]"] ;
266 -> 267 ;
268 [label="Rating Cycle 2 Number of Standard Health Deficiencies <= 0.3\ngini = 0.1\nsamples = 569\nvalue = [[57, 842]\n[842, 57]]"] ;
267 -> 268 ;
269 [label="Overall Rating <= 0.4\ngini = 0.2\nsamples = 278\nvalue = [[43, 388]\n[388, 43]]"] ;
268 -> 269 ;
270 [label="QM Rating <= 0.6\ngini = 0.2\nsamples = 191\nvalue = [[38, 255]\n[255, 38]]"] ;
269 -> 270 ;
271 [label="Rating Cycle 1 Total Health Score <= 0.0\ngini = 0.1\nsamples = 121\nvalue = [[14, 176]\n[176, 14]]"] ;
270 -> 271 ;
272 [label="Case-Mix LPN Staffing Hours per Resident per Day <= 0.4\ngini = 0.4\nsamples = 9\nvalue = [[5, 11]\n[11, 5]]"] ;
271 -> 272 ;
273 [label="gini = 0.0\nsamples = 7\nvalue = [[0, 10]\n[10, 0]]"] ;
272 -> 273 ;
274 [label="Rating Cycle 2 Health Deficiency Score <= 0.0\ngini = 0.3\nsamples = 2\nvalue = [[5, 1]\n[1, 5]]"] ;
272 -> 274 ;
275 [label="gini = 0.0\nsamples = 1\nvalue = [[5, 0]\n[0, 5]]"] ;
274 -> 275 ;
276 [label="gini = 0.0\nsamples = 1\nvalue = [[0, 1]\n[1, 0]]"] ;
274 -> 276 ;
277 [label="Total Weighted Health Survey Score <= 0.2\ngini = 0.1\nsamples = 112\nvalue = [[9, 165]\n[165, 9]]"] ;
271 -> 277 ;
278 [label="Rating Cycle 2 Health Deficiency Score <= 0.0\ngini = 0.0\nsamples = 108\nvalue = [[4, 163]\n[163, 4]]"] ;
277 -> 278 ;
279 [label="gini = 0.0\nsamples = 1\nvalue = [[1, 0]\n[0, 1]]"] ;
278 -> 279 ;
280 [label="Reported Physical Therapist Staffing Hours per Resident Per Day <= 0.0\ngini = 0.0\nsamples = 107\nvalue = [[3, 163]\n[163, 3]]"] ;
278 -> 280 ;
281 [label="Long-Stay QM Rating <= 0.9\ngini = 0.3\nsamples = 8\nvalue = [[2, 10]\n[10, 2]]"] ;
280 -> 281 ;
282 [label="Rating Cycle 1 Total Number of Health Deficiencies <= 0.1\ngini = 0.2\nsamples = 7\nvalue = [[1, 10]\n[10, 1]]"] ;
281 -> 282 ;
283 [label="gini = 0.0\nsamples = 5\nvalue = [[0, 9]\n[9, 0]]"] ;
282 -> 283 ;
284 [label="Adjusted Nurse Aide Staffing Hours per Resident per Day <= 0.4\ngini = 0.5\nsamples = 2\nvalue = [[1, 1]\n[1, 1]]"] ;
282 -> 284 ;
285 [label="gini = 0.0\nsamples = 1\nvalue = [[1, 0]\n[0, 1]]"] ;
284 -> 285 ;
286 [label="gini = 0.0\nsamples = 1\nvalue = [[0, 1]\n[1, 0]]"] ;
284 -> 286 ;
287 [label="gini = 0.0\nsamples = 1\nvalue = [[1, 0]\n[0, 1]]"] ;
281 -> 287 ;
288 [label="Reported Nurse Aide Staffing Hours per Resident per Day <= 0.3\ngini = 0.0\nsamples = 99\nvalue = [[1, 153]\n[153, 1]]"] ;
280 -> 288 ;
289 [label="Reported Nurse Aide Staffing Hours per Resident per Day <= 0.3\ngini = 0.0\nsamples = 24\nvalue = [[1, 38]\n[38, 1]]"] ;
288 -> 289 ;
290 [label="gini = 0.0\nsamples = 23\nvalue = [[0, 38]\n[38, 0]]"] ;
289 -> 290 ;
291 [label="gini = 0.0\nsamples = 1\nvalue = [[1, 0]\n[0, 1]]"] ;
289 -> 291 ;
292 [label="gini = 0.0\nsamples = 75\nvalue = [[0, 115]\n[115, 0]]"] ;
288 -> 292 ;
293 [label="Reported Licensed Staffing Hours per Resident per Day <= 0.1\ngini = 0.4\nsamples = 4\nvalue = [[5, 2]\n[2, 5]]"] ;
277 -> 293 ;
294 [label="gini = 0.0\nsamples = 1\nvalue = [[0, 2]\n[2, 0]]"] ;
293 -> 294 ;
295 [label="gini = 0.0\nsamples = 3\nvalue = [[5, 0]\n[0, 5]]"] ;
293 -> 295 ;
296 [label="Number of Facility Reported Incidents <= 0.0\ngini = 0.4\nsamples = 70\nvalue = [[24, 79]\n[79, 24]]"] ;
270 -> 296 ;
297 [label="Rating Cycle 1 Number of Standard Health Deficiencies <= 0.2\ngini = 0.2\nsamples = 43\nvalue = [[7, 52]\n[52, 7]]"] ;
296 -> 297 ;
298 [label="Rating Cycle 1 Health Deficiency Score <= 0.1\ngini = 0.3\nsamples = 27\nvalue = [[7, 29]\n[29, 7]]"] ;
297 -> 298 ;
299 [label="Reported LPN Staffing Hours per Resident per Day <= 0.1\ngini = 0.3\nsamples = 26\nvalue = [[5, 29]\n[29, 5]]"] ;
298 -> 299 ;
300 [label="gini = 0.0\nsamples = 1\nvalue = [[1, 0]\n[0, 1]]"] ;
299 -> 300 ;
301 [label="Case-Mix RN Staffing Hours per Resident per Day <= 0.1\ngini = 0.2\nsamples = 25\nvalue = [[4, 29]\n[29, 4]]"] ;
299 -> 301 ;
302 [label="gini = 0.0\nsamples = 9\nvalue = [[0, 11]\n[11, 0]]"] ;
301 -> 302 ;
303 [label="Case-Mix LPN Staffing Hours per Resident per Day <= 0.3\ngini = 0.3\nsamples = 16\nvalue = [[4, 18]\n[18, 4]]"] ;
301 -> 303 ;
304 [label="gini = 0.0\nsamples = 1\nvalue = [[2, 0]\n[0, 2]]"] ;
303 -> 304 ;
305 [label="Rating Cycle 2 Health Deficiency Score <= 0.1\ngini = 0.2\nsamples = 15\nvalue = [[2, 18]\n[18, 2]]"] ;
303 -> 305 ;
306 [label="gini = 0.0\nsamples = 8\nvalue = [[0, 11]\n[11, 0]]"] ;
305 -> 306 ;
307 [label="Rating Cycle 2 Total Health Score <= 0.1\ngini = 0.3\nsamples = 7\nvalue = [[2, 7]\n[7, 2]]"] ;
305 -> 307 ;
308 [label="gini = 0.0\nsamples = 1\nvalue = [[1, 0]\n[0, 1]]"] ;
307 -> 308 ;
309 [label="Number of Substantiated Complaints <= 0.0\ngini = 0.2\nsamples = 6\nvalue = [[1, 7]\n[7, 1]]"] ;
307 -> 309 ;
310 [label="gini = 0.0\nsamples = 4\nvalue = [[0, 6]\n[6, 0]]"] ;
309 -> 310 ;
311 [label="Case-Mix LPN Staffing Hours per Resident per Day <= 0.4\ngini = 0.5\nsamples = 2\nvalue = [[1, 1]\n[1, 1]]"] ;
309 -> 311 ;
312 [label="gini = 0.0\nsamples = 1\nvalue = [[1, 0]\n[0, 1]]"] ;
311 -> 312 ;
313 [label="gini = 0.0\nsamples = 1\nvalue = [[0, 1]\n[1, 0]]"] ;
311 -> 313 ;
314 [label="gini = 0.0\nsamples = 1\nvalue = [[2, 0]\n[0, 2]]"] ;
298 -> 314 ;
315 [label="gini = 0.0\nsamples = 16\nvalue = [[0, 23]\n[23, 0]]"] ;
297 -> 315 ;
316 [label="Adjusted LPN Staffing Hours per Resident per Day <= 0.3\ngini = 0.5\nsamples = 27\nvalue = [[17, 27]\n[27, 17]]"] ;
296 -> 316 ;
317 [label="gini = 0.0\nsamples = 9\nvalue = [[0, 12]\n[12, 0]]"] ;
316 -> 317 ;
318 [label="Rating Cycle 1 Total Number of Health Deficiencies <= 0.1\ngini = 0.5\nsamples = 18\nvalue = [[17, 15]\n[15, 17]]"] ;
316 -> 318 ;
319 [label="gini = 0.0\nsamples = 3\nvalue = [[9, 0]\n[0, 9]]"] ;
318 -> 319 ;
320 [label="Rating Cycle 1 Total Health Score <= 0.1\ngini = 0.5\nsamples = 15\nvalue = [[8, 15]\n[15, 8]]"] ;
318 -> 320 ;
321 [label="Rating Cycle 2 Total Number of Health Deficiencies <= 0.3\ngini = 0.3\nsamples = 11\nvalue = [[3, 14]\n[14, 3]]"] ;
320 -> 321 ;
322 [label="Case-Mix LPN Staffing Hours per Resident per Day <= 0.3\ngini = 0.5\nsamples = 3\nvalue = [[3, 2]\n[2, 3]]"] ;
321 -> 322 ;
323 [label="gini = 0.0\nsamples = 1\nvalue = [[0, 2]\n[2, 0]]"] ;
322 -> 323 ;
324 [label="gini = 0.0\nsamples = 2\nvalue = [[3, 0]\n[0, 3]]"] ;
322 -> 324 ;
325 [label="gini = 0.0\nsamples = 8\nvalue = [[0, 12]\n[12, 0]]"] ;
321 -> 325 ;
326 [label="Reported Physical Therapist Staffing Hours per Resident Per Day <= 0.0\ngini = 0.3\nsamples = 4\nvalue = [[5, 1]\n[1, 5]]"] ;
320 -> 326 ;
327 [label="gini = 0.0\nsamples = 3\nvalue = [[5, 0]\n[0, 5]]"] ;
326 -> 327 ;
328 [label="gini = 0.0\nsamples = 1\nvalue = [[0, 1]\n[1, 0]]"] ;
326 -> 328 ;
329 [label="Case-Mix LPN Staffing Hours per Resident per Day <= 0.4\ngini = 0.1\nsamples = 87\nvalue = [[5, 133]\n[133, 5]]"] ;
269 -> 329 ;
330 [label="Reported Total Nurse Staffing Hours per Resident per Day <= 0.3\ngini = 0.0\nsamples = 78\nvalue = [[1, 122]\n[122, 1]]"] ;
329 -> 330 ;
331 [label="gini = 0.0\nsamples = 60\nvalue = [[0, 97]\n[97, 0]]"] ;
330 -> 331 ;
332 [label="Reported RN Staffing Hours per Resident per Day <= 0.1\ngini = 0.1\nsamples = 18\nvalue = [[1, 25]\n[25, 1]]"] ;
330 -> 332 ;
333 [label="Reported RN Staffing Hours per Resident per Day <= 0.1\ngini = 0.2\nsamples = 7\nvalue = [[1, 7]\n[7, 1]]"] ;
332 -> 333 ;
334 [label="gini = 0.0\nsamples = 6\nvalue = [[0, 7]\n[7, 0]]"] ;
333 -> 334 ;
335 [label="gini = 0.0\nsamples = 1\nvalue = [[1, 0]\n[0, 1]]"] ;
333 -> 335 ;
336 [label="gini = 0.0\nsamples = 11\nvalue = [[0, 18]\n[18, 0]]"] ;
332 -> 336 ;
337 [label="Rating Cycle 2 Total Health Score <= 0.0\ngini = 0.4\nsamples = 9\nvalue = [[4, 11]\n[11, 4]]"] ;
329 -> 337 ;
338 [label="gini = 0.0\nsamples = 6\nvalue = [[0, 10]\n[10, 0]]"] ;
337 -> 338 ;
339 [label="Number of Certified Beds <= 0.1\ngini = 0.3\nsamples = 3\nvalue = [[4, 1]\n[1, 4]]"] ;
337 -> 339 ;
340 [label="gini = 0.0\nsamples = 1\nvalue = [[0, 1]\n[1, 0]]"] ;
339 -> 340 ;
341 [label="gini = 0.0\nsamples = 2\nvalue = [[4, 0]\n[0, 4]]"] ;
339 -> 341 ;
342 [label="Rating Cycle 1 Total Number of Health Deficiencies <= 0.2\ngini = 0.1\nsamples = 291\nvalue = [[14, 454]\n[454, 14]]"] ;
268 -> 342 ;
343 [label="Staffing Rating <= 0.1\ngini = 0.0\nsamples = 285\nvalue = [[11, 450]\n[450, 11]]"] ;
342 -> 343 ;
344 [label="Reported RN Staffing Hours per Resident per Day <= 0.1\ngini = 0.1\nsamples = 36\nvalue = [[4, 53]\n[53, 4]]"] ;
343 -> 344 ;
345 [label="Reported Total Nurse Staffing Hours per Resident per Day <= 0.2\ngini = 0.1\nsamples = 35\nvalue = [[3, 53]\n[53, 3]]"] ;
344 -> 345 ;
346 [label="gini = 0.0\nsamples = 28\nvalue = [[0, 47]\n[47, 0]]"] ;
345 -> 346 ;
347 [label="Rating Cycle 1 Health Deficiency Score <= 0.0\ngini = 0.4\nsamples = 7\nvalue = [[3, 6]\n[6, 3]]"] ;
345 -> 347 ;
348 [label="gini = 0.0\nsamples = 3\nvalue = [[0, 4]\n[4, 0]]"] ;
347 -> 348 ;
349 [label="Adjusted Nurse Aide Staffing Hours per Resident per Day <= 0.4\ngini = 0.5\nsamples = 4\nvalue = [[3, 2]\n[2, 3]]"] ;
347 -> 349 ;
350 [label="Rating Cycle 1 Number of Standard Health Deficiencies <= 0.2\ngini = 0.4\nsamples = 3\nvalue = [[1, 2]\n[2, 1]]"] ;
349 -> 350 ;
351 [label="gini = 0.0\nsamples = 2\nvalue = [[0, 2]\n[2, 0]]"] ;
350 -> 351 ;
352 [label="gini = 0.0\nsamples = 1\nvalue = [[1, 0]\n[0, 1]]"] ;
350 -> 352 ;
353 [label="gini = 0.0\nsamples = 1\nvalue = [[2, 0]\n[0, 2]]"] ;
349 -> 353 ;
354 [label="gini = 0.0\nsamples = 1\nvalue = [[1, 0]\n[0, 1]]"] ;
344 -> 354 ;
355 [label="Reported RN Staffing Hours per Resident per Day <= 0.2\ngini = 0.0\nsamples = 249\nvalue = [[7, 397]\n[397, 7]]"] ;
343 -> 355 ;
356 [label="Rating Cycle 2 Total Number of Health Deficiencies <= 0.5\ngini = 0.0\nsamples = 243\nvalue = [[5, 389]\n[389, 5]]"] ;
355 -> 356 ;
357 [label="Adjusted Nurse Aide Staffing Hours per Resident per Day <= 0.4\ngini = 0.0\nsamples = 238\nvalue = [[4, 382]\n[382, 4]]"] ;
356 -> 357 ;
358 [label="Adjusted Nurse Aide Staffing Hours per Resident per Day <= 0.4\ngini = 0.0\nsamples = 88\nvalue = [[3, 136]\n[136, 3]]"] ;
357 -> 358 ;
359 [label="gini = 0.0\nsamples = 87\nvalue = [[0, 136]\n[136, 0]]"] ;
358 -> 359 ;
360 [label="gini = 0.0\nsamples = 1\nvalue = [[3, 0]\n[0, 3]]"] ;
358 -> 360 ;
361 [label="Adjusted RN Staffing Hours per Resident per Day <= 0.2\ngini = 0.0\nsamples = 150\nvalue = [[1, 246]\n[246, 1]]"] ;
357 -> 361 ;
362 [label="gini = 0.0\nsamples = 125\nvalue = [[0, 200]\n[200, 0]]"] ;
361 -> 362 ;
363 [label="Total Weighted Health Survey Score <= 0.1\ngini = 0.0\nsamples = 25\nvalue = [[1, 46]\n[46, 1]]"] ;
361 -> 363 ;
364 [label="Reported LPN Staffing Hours per Resident per Day <= 0.2\ngini = 0.4\nsamples = 4\nvalue = [[1, 3]\n[3, 1]]"] ;
363 -> 364 ;
365 [label="gini = 0.0\nsamples = 3\nvalue = [[0, 3]\n[3, 0]]"] ;
364 -> 365 ;
366 [label="gini = 0.0\nsamples = 1\nvalue = [[1, 0]\n[0, 1]]"] ;
364 -> 366 ;
367 [label="gini = 0.0\nsamples = 21\nvalue = [[0, 43]\n[43, 0]]"] ;
363 -> 367 ;
368 [label="Rating Cycle 1 Number of Standard Health Deficiencies <= 0.3\ngini = 0.2\nsamples = 5\nvalue = [[1, 7]\n[7, 1]]"] ;
356 -> 368 ;
369 [label="Rating Cycle 2 Health Revisit Score <= 0.1\ngini = 0.4\nsamples = 3\nvalue = [[1, 2]\n[2, 1]]"] ;
368 -> 369 ;
370 [label="gini = 0.0\nsamples = 1\nvalue = [[1, 0]\n[0, 1]]"] ;
369 -> 370 ;
371 [label="gini = 0.0\nsamples = 2\nvalue = [[0, 2]\n[2, 0]]"] ;
369 -> 371 ;
372 [label="gini = 0.0\nsamples = 2\nvalue = [[0, 5]\n[5, 0]]"] ;
368 -> 372 ;
373 [label="Adjusted LPN Staffing Hours per Resident per Day <= 0.2\ngini = 0.3\nsamples = 6\nvalue = [[2, 8]\n[8, 2]]"] ;
355 -> 373 ;
374 [label="gini = 0.0\nsamples = 5\nvalue = [[0, 8]\n[8, 0]]"] ;
373 -> 374 ;
375 [label="gini = 0.0\nsamples = 1\nvalue = [[2, 0]\n[0, 2]]"] ;
373 -> 375 ;
376 [label="Number of Facility Reported Incidents <= 0.0\ngini = 0.5\nsamples = 6\nvalue = [[3, 4]\n[4, 3]]"] ;
342 -> 376 ;
377 [label="gini = 0.0\nsamples = 2\nvalue = [[3, 0]\n[0, 3]]"] ;
376 -> 377 ;
378 [label="gini = 0.0\nsamples = 4\nvalue = [[0, 4]\n[4, 0]]"] ;
376 -> 378 ;
379 [label="Number of Facility Reported Incidents <= 0.2\ngini = 0.3\nsamples = 34\nvalue = [[11, 45]\n[45, 11]]"] ;
267 -> 379 ;
380 [label="Staffing Rating <= 0.4\ngini = 0.2\nsamples = 31\nvalue = [[7, 45]\n[45, 7]]"] ;
379 -> 380 ;
381 [label="Number of Substantiated Complaints <= 0.3\ngini = 0.1\nsamples = 22\nvalue = [[2, 36]\n[36, 2]]"] ;
380 -> 381 ;
382 [label="Average Number of Residents Per Day <= 0.1\ngini = 0.1\nsamples = 16\nvalue = [[2, 24]\n[24, 2]]"] ;
381 -> 382 ;
383 [label="Short-Stay QM Rating <= 0.5\ngini = 0.5\nsamples = 2\nvalue = [[1, 1]\n[1, 1]]"] ;
382 -> 383 ;
384 [label="gini = 0.0\nsamples = 1\nvalue = [[0, 1]\n[1, 0]]"] ;
383 -> 384 ;
385 [label="gini = 0.0\nsamples = 1\nvalue = [[1, 0]\n[0, 1]]"] ;
383 -> 385 ;
386 [label="Case-Mix Total Nurse Staffing Hours per Resident per Day <= 0.4\ngini = 0.1\nsamples = 14\nvalue = [[1, 23]\n[23, 1]]"] ;
382 -> 386 ;
387 [label="gini = 0.0\nsamples = 11\nvalue = [[0, 20]\n[20, 0]]"] ;
386 -> 387 ;
388 [label="QM Rating <= 0.1\ngini = 0.4\nsamples = 3\nvalue = [[1, 3]\n[3, 1]]"] ;
386 -> 388 ;
389 [label="gini = 0.0\nsamples = 1\nvalue = [[1, 0]\n[0, 1]]"] ;
388 -> 389 ;
390 [label="gini = 0.0\nsamples = 2\nvalue = [[0, 3]\n[3, 0]]"] ;
388 -> 390 ;
391 [label="gini = 0.0\nsamples = 6\nvalue = [[0, 12]\n[12, 0]]"] ;
381 -> 391 ;
392 [label="Rating Cycle 2 Total Number of Health Deficiencies <= 0.7\ngini = 0.5\nsamples = 9\nvalue = [[5, 9]\n[9, 5]]"] ;
380 -> 392 ;
393 [label="Rating Cycle 1 Total Health Score <= 0.0\ngini = 0.5\nsamples = 5\nvalue = [[5, 3]\n[3, 5]]"] ;
392 -> 393 ;
394 [label="gini = 0.0\nsamples = 2\nvalue = [[0, 3]\n[3, 0]]"] ;
393 -> 394 ;
395 [label="gini = 0.0\nsamples = 3\nvalue = [[5, 0]\n[0, 5]]"] ;
393 -> 395 ;
396 [label="gini = 0.0\nsamples = 4\nvalue = [[0, 6]\n[6, 0]]"] ;
392 -> 396 ;
397 [label="gini = 0.0\nsamples = 3\nvalue = [[4, 0]\n[0, 4]]"] ;
379 -> 397 ;
398 [label="Number of Certified Beds <= 0.2\ngini = 0.4\nsamples = 2\nvalue = [[2, 1]\n[1, 2]]"] ;
266 -> 398 ;
399 [label="gini = 0.0\nsamples = 1\nvalue = [[0, 1]\n[1, 0]]"] ;
398 -> 399 ;
400 [label="gini = 0.0\nsamples = 1\nvalue = [[2, 0]\n[0, 2]]"] ;
398 -> 400 ;
401 [label="gini = 0.0\nsamples = 1\nvalue = [[4, 0]\n[0, 4]]"] ;
265 -> 401 ;
402 [label="Health Inspection Rating <= 0.1\ngini = 0.2\nsamples = 1178\nvalue = [[261, 1606]\n[1606, 261]]"] ;
0 -> 402 [labeldistance=2.5, labelangle=-45, headlabel="False"] ;
403 [label="Rating Cycle 1 Total Health Score <= 0.1\ngini = 0.3\nsamples = 613\nvalue = [[199, 796]\n[796, 199]]"] ;
402 -> 403 ;
404 [label="Average Number of Residents Per Day <= 0.5\ngini = 0.2\nsamples = 387\nvalue = [[63, 574]\n[574, 63]]"] ;
403 -> 404 ;
405 [label="Rating Cycle 1 Total Number of Health Deficiencies <= 0.1\ngini = 0.2\nsamples = 386\nvalue = [[59, 574]\n[574, 59]]"] ;
404 -> 405 ;
406 [label="Reported Physical Therapist Staffing Hours per Resident Per Day <= 0.1\ngini = 0.1\nsamples = 250\nvalue = [[24, 382]\n[382, 24]]"] ;
405 -> 406 ;
407 [label="Reported Licensed Staffing Hours per Resident per Day <= 0.4\ngini = 0.1\nsamples = 245\nvalue = [[22, 376]\n[376, 22]]"] ;
406 -> 407 ;
408 [label="Rating Cycle 1 Number of Complaint Health Deficiencies <= 0.0\ngini = 0.1\nsamples = 244\nvalue = [[20, 376]\n[376, 20]]"] ;
407 -> 408 ;
409 [label="Reported Nurse Aide Staffing Hours per Resident per Day <= 0.3\ngini = 0.1\nsamples = 221\nvalue = [[11, 345]\n[345, 11]]"] ;
408 -> 409 ;
410 [label="Reported Nurse Aide Staffing Hours per Resident per Day <= 0.3\ngini = 0.4\nsamples = 6\nvalue = [[2, 6]\n[6, 2]]"] ;
409 -> 410 ;
411 [label="gini = 0.0\nsamples = 5\nvalue = [[0, 6]\n[6, 0]]"] ;
410 -> 411 ;
412 [label="gini = 0.0\nsamples = 1\nvalue = [[2, 0]\n[0, 2]]"] ;
410 -> 412 ;
413 [label="Staffing Rating <= 0.4\ngini = 0.1\nsamples = 215\nvalue = [[9, 339]\n[339, 9]]"] ;
409 -> 413 ;
414 [label="gini = 0.0\nsamples = 108\nvalue = [[0, 184]\n[184, 0]]"] ;
413 -> 414 ;
415 [label="Rating Cycle 1 Health Deficiency Score <= 0.1\ngini = 0.1\nsamples = 107\nvalue = [[9, 155]\n[155, 9]]"] ;
413 -> 415 ;
416 [label="Rating Cycle 2 Total Number of Health Deficiencies <= 0.0\ngini = 0.1\nsamples = 94\nvalue = [[6, 140]\n[140, 6]]"] ;
415 -> 416 ;
417 [label="Adjusted Nurse Aide Staffing Hours per Resident per Day <= 0.4\ngini = 0.4\nsamples = 4\nvalue = [[2, 5]\n[5, 2]]"] ;
416 -> 417 ;
418 [label="gini = 0.0\nsamples = 3\nvalue = [[0, 5]\n[5, 0]]"] ;
417 -> 418 ;
419 [label="gini = 0.0\nsamples = 1\nvalue = [[2, 0]\n[0, 2]]"] ;
417 -> 419 ;
420 [label="Case-Mix Total Nurse Staffing Hours per Resident per Day <= 0.3\ngini = 0.1\nsamples = 90\nvalue = [[4, 135]\n[135, 4]]"] ;
416 -> 420 ;
421 [label="gini = 0.0\nsamples = 60\nvalue = [[0, 91]\n[91, 0]]"] ;
420 -> 421 ;
422 [label="Reported LPN Staffing Hours per Resident per Day <= 0.1\ngini = 0.2\nsamples = 30\nvalue = [[4, 44]\n[44, 4]]"] ;
420 -> 422 ;
423 [label="gini = 0.0\nsamples = 1\nvalue = [[2, 0]\n[0, 2]]"] ;
422 -> 423 ;
424 [label="Rating Cycle 1 Total Health Score <= 0.0\ngini = 0.1\nsamples = 29\nvalue = [[2, 44]\n[44, 2]]"] ;
422 -> 424 ;
425 [label="gini = 0.0\nsamples = 17\nvalue = [[0, 31]\n[31, 0]]"] ;
424 -> 425 ;
426 [label="Reported Nurse Aide Staffing Hours per Resident per Day <= 0.4\ngini = 0.2\nsamples = 12\nvalue = [[2, 13]\n[13, 2]]"] ;
424 -> 426 ;
427 [label="Reported Licensed Staffing Hours per Resident per Day <= 0.2\ngini = 0.4\nsamples = 7\nvalue = [[2, 5]\n[5, 2]]"] ;
426 -> 427 ;
428 [label="gini = 0.0\nsamples = 4\nvalue = [[0, 4]\n[4, 0]]"] ;
427 -> 428 ;
429 [label="Reported RN Staffing Hours per Resident per Day <= 0.1\ngini = 0.4\nsamples = 3\nvalue = [[2, 1]\n[1, 2]]"] ;
427 -> 429 ;
430 [label="gini = 0.0\nsamples = 1\nvalue = [[0, 1]\n[1, 0]]"] ;
429 -> 430 ;
431 [label="gini = 0.0\nsamples = 2\nvalue = [[2, 0]\n[0, 2]]"] ;
429 -> 431 ;
432 [label="gini = 0.0\nsamples = 5\nvalue = [[0, 8]\n[8, 0]]"] ;
426 -> 432 ;
433 [label="Rating Cycle 1 Health Deficiency Score <= 0.1\ngini = 0.3\nsamples = 13\nvalue = [[3, 15]\n[15, 3]]"] ;
415 -> 433 ;
434 [label="gini = 0.0\nsamples = 1\nvalue = [[1, 0]\n[0, 1]]"] ;
433 -> 434 ;
435 [label="Adjusted Nurse Aide Staffing Hours per Resident per Day <= 0.4\ngini = 0.2\nsamples = 12\nvalue = [[2, 15]\n[15, 2]]"] ;
433 -> 435 ;
436 [label="Case-Mix RN Staffing Hours per Resident per Day <= 0.1\ngini = 0.5\nsamples = 2\nvalue = [[1, 1]\n[1, 1]]"] ;
435 -> 436 ;
437 [label="gini = 0.0\nsamples = 1\nvalue = [[1, 0]\n[0, 1]]"] ;
436 -> 437 ;
438 [label="gini = 0.0\nsamples = 1\nvalue = [[0, 1]\n[1, 0]]"] ;
436 -> 438 ;
439 [label="Adjusted RN Staffing Hours per Resident per Day <= 0.1\ngini = 0.1\nsamples = 10\nvalue = [[1, 14]\n[14, 1]]"] ;
435 -> 439 ;
440 [label="gini = 0.0\nsamples = 1\nvalue = [[1, 0]\n[0, 1]]"] ;
439 -> 440 ;
441 [label="gini = 0.0\nsamples = 9\nvalue = [[0, 14]\n[14, 0]]"] ;
439 -> 441 ;
442 [label="Adjusted Total Nurse Staffing Hours per Resident per Day <= 0.2\ngini = 0.3\nsamples = 23\nvalue = [[9, 31]\n[31, 9]]"] ;
408 -> 442 ;
443 [label="Reported Licensed Staffing Hours per Resident per Day <= 0.1\ngini = 0.5\nsamples = 6\nvalue = [[4, 3]\n[3, 4]]"] ;
442 -> 443 ;
444 [label="gini = 0.0\nsamples = 2\nvalue = [[0, 2]\n[2, 0]]"] ;
443 -> 444 ;
445 [label="Rating Cycle 1 Health Deficiency Score <= 0.0\ngini = 0.3\nsamples = 4\nvalue = [[4, 1]\n[1, 4]]"] ;
443 -> 445 ;
446 [label="gini = 0.0\nsamples = 1\nvalue = [[0, 1]\n[1, 0]]"] ;
445 -> 446 ;
447 [label="gini = 0.0\nsamples = 3\nvalue = [[4, 0]\n[0, 4]]"] ;
445 -> 447 ;
448 [label="Rating Cycle 2 Total Health Score <= 0.0\ngini = 0.3\nsamples = 17\nvalue = [[5, 28]\n[28, 5]]"] ;
442 -> 448 ;
449 [label="Case-Mix Total Nurse Staffing Hours per Resident per Day <= 0.3\ngini = 0.5\nsamples = 2\nvalue = [[3, 2]\n[2, 3]]"] ;
448 -> 449 ;
450 [label="gini = 0.0\nsamples = 1\nvalue = [[3, 0]\n[0, 3]]"] ;
449 -> 450 ;
451 [label="gini = 0.0\nsamples = 1\nvalue = [[0, 2]\n[2, 0]]"] ;
449 -> 451 ;
452 [label="Total Amount of Fines in Dollars <= 0.0\ngini = 0.1\nsamples = 15\nvalue = [[2, 26]\n[26, 2]]"] ;
448 -> 452 ;
453 [label="gini = 0.0\nsamples = 1\nvalue = [[2, 0]\n[0, 2]]"] ;
452 -> 453 ;
454 [label="gini = 0.0\nsamples = 14\nvalue = [[0, 26]\n[26, 0]]"] ;
452 -> 454 ;
455 [label="gini = 0.0\nsamples = 1\nvalue = [[2, 0]\n[0, 2]]"] ;
407 -> 455 ;
456 [label="Reported RN Staffing Hours per Resident per Day <= 0.1\ngini = 0.4\nsamples = 5\nvalue = [[2, 6]\n[6, 2]]"] ;
406 -> 456 ;
457 [label="gini = 0.0\nsamples = 1\nvalue = [[2, 0]\n[0, 2]]"] ;
456 -> 457 ;
458 [label="gini = 0.0\nsamples = 4\nvalue = [[0, 6]\n[6, 0]]"] ;
456 -> 458 ;
459 [label="Reported Total Nurse Staffing Hours per Resident per Day <= 0.2\ngini = 0.3\nsamples = 136\nvalue = [[35, 192]\n[192, 35]]"] ;
405 -> 459 ;
460 [label="Rating Cycle 2 Health Deficiency Score <= 0.1\ngini = 0.1\nsamples = 40\nvalue = [[5, 57]\n[57, 5]]"] ;
459 -> 460 ;
461 [label="Number of Payment Denials <= 0.1\ngini = 0.0\nsamples = 31\nvalue = [[1, 50]\n[50, 1]]"] ;
460 -> 461 ;
462 [label="gini = 0.0\nsamples = 21\nvalue = [[0, 38]\n[38, 0]]"] ;
461 -> 462 ;
463 [label="Reported Nurse Aide Staffing Hours per Resident per Day <= 0.4\ngini = 0.1\nsamples = 10\nvalue = [[1, 12]\n[12, 1]]"] ;
461 -> 463 ;
464 [label="gini = 0.0\nsamples = 8\nvalue = [[0, 11]\n[11, 0]]"] ;
463 -> 464 ;
465 [label="Short-Stay QM Rating <= 0.2\ngini = 0.5\nsamples = 2\nvalue = [[1, 1]\n[1, 1]]"] ;
463 -> 465 ;
466 [label="gini = 0.0\nsamples = 1\nvalue = [[1, 0]\n[0, 1]]"] ;
465 -> 466 ;
467 [label="gini = 0.0\nsamples = 1\nvalue = [[0, 1]\n[1, 0]]"] ;
465 -> 467 ;
468 [label="Reported LPN Staffing Hours per Resident per Day <= 0.2\ngini = 0.5\nsamples = 9\nvalue = [[4, 7]\n[7, 4]]"] ;
460 -> 468 ;
469 [label="gini = 0.0\nsamples = 3\nvalue = [[4, 0]\n[0, 4]]"] ;
468 -> 469 ;
470 [label="gini = 0.0\nsamples = 6\nvalue = [[0, 7]\n[7, 0]]"] ;
468 -> 470 ;
471 [label="Adjusted RN Staffing Hours per Resident per Day <= 0.1\ngini = 0.3\nsamples = 96\nvalue = [[30, 135]\n[135, 30]]"] ;
459 -> 471 ;
472 [label="Adjusted Nurse Aide Staffing Hours per Resident per Day <= 0.3\ngini = 0.1\nsamples = 40\nvalue = [[5, 60]\n[60, 5]]"] ;
471 -> 472 ;
473 [label="gini = 0.0\nsamples = 1\nvalue = [[3, 0]\n[0, 3]]"] ;
472 -> 473 ;
474 [label="Ownership Type_For profit - Limited Liability company <= 0.5\ngini = 0.1\nsamples = 39\nvalue = [[2, 60]\n[60, 2]]"] ;
472 -> 474 ;
475 [label="gini = 0.0\nsamples = 36\nvalue = [[0, 58]\n[58, 0]]"] ;
474 -> 475 ;
476 [label="Total Amount of Fines in Dollars <= 0.0\ngini = 0.5\nsamples = 3\nvalue = [[2, 2]\n[2, 2]]"] ;
474 -> 476 ;
477 [label="gini = 0.0\nsamples = 1\nvalue = [[2, 0]\n[0, 2]]"] ;
476 -> 477 ;
478 [label="gini = 0.0\nsamples = 2\nvalue = [[0, 2]\n[2, 0]]"] ;
476 -> 478 ;
479 [label="Adjusted Total Nurse Staffing Hours per Resident per Day <= 0.3\ngini = 0.4\nsamples = 56\nvalue = [[25, 75]\n[75, 25]]"] ;
471 -> 479 ;
480 [label="Rating Cycle 2 Total Number of Health Deficiencies <= 0.3\ngini = 0.4\nsamples = 45\nvalue = [[25, 60]\n[60, 25]]"] ;
479 -> 480 ;
481 [label="Adjusted Total Nurse Staffing Hours per Resident per Day <= 0.3\ngini = 0.4\nsamples = 36\nvalue = [[23, 48]\n[48, 23]]"] ;
480 -> 481 ;
482 [label="Average Number of Residents Per Day <= 0.1\ngini = 0.4\nsamples = 35\nvalue = [[19, 48]\n[48, 19]]"] ;
481 -> 482 ;
483 [label="Rating Cycle 2 Number of Standard Health Deficiencies <= 0.1\ngini = 0.1\nsamples = 15\nvalue = [[1, 27]\n[27, 1]]"] ;
482 -> 483 ;
484 [label="Case-Mix Nurse Aide Staffing Hours per Resident per Day <= 0.6\ngini = 0.4\nsamples = 2\nvalue = [[1, 2]\n[2, 1]]"] ;
483 -> 484 ;
485 [label="gini = 0.0\nsamples = 1\nvalue = [[0, 2]\n[2, 0]]"] ;
484 -> 485 ;
486 [label="gini = 0.0\nsamples = 1\nvalue = [[1, 0]\n[0, 1]]"] ;
484 -> 486 ;
487 [label="gini = 0.0\nsamples = 13\nvalue = [[0, 25]\n[25, 0]]"] ;
483 -> 487 ;
488 [label="Number of Certified Beds <= 0.1\ngini = 0.5\nsamples = 20\nvalue = [[18, 21]\n[21, 18]]"] ;
482 -> 488 ;
489 [label="gini = 0.0\nsamples = 2\nvalue = [[5, 0]\n[0, 5]]"] ;
488 -> 489 ;
490 [label="Reported Licensed Staffing Hours per Resident per Day <= 0.2\ngini = 0.5\nsamples = 18\nvalue = [[13, 21]\n[21, 13]]"] ;
488 -> 490 ;
491 [label="Reported Total Nurse Staffing Hours per Resident per Day <= 0.2\ngini = 0.4\nsamples = 8\nvalue = [[11, 5]\n[5, 11]]"] ;
490 -> 491 ;
492 [label="gini = 0.0\nsamples = 3\nvalue = [[7, 0]\n[0, 7]]"] ;
491 -> 492 ;
493 [label="Reported Nurse Aide Staffing Hours per Resident per Day <= 0.5\ngini = 0.5\nsamples = 5\nvalue = [[4, 5]\n[5, 4]]"] ;
491 -> 493 ;
494 [label="gini = 0.0\nsamples = 2\nvalue = [[0, 3]\n[3, 0]]"] ;
493 -> 494 ;
495 [label="Case-Mix LPN Staffing Hours per Resident per Day <= 0.2\ngini = 0.4\nsamples = 3\nvalue = [[4, 2]\n[2, 4]]"] ;
493 -> 495 ;
496 [label="gini = 0.0\nsamples = 1\nvalue = [[0, 2]\n[2, 0]]"] ;
495 -> 496 ;
497 [label="gini = 0.0\nsamples = 2\nvalue = [[4, 0]\n[0, 4]]"] ;
495 -> 497 ;
498 [label="Short-Stay QM Rating <= 0.4\ngini = 0.2\nsamples = 10\nvalue = [[2, 16]\n[16, 2]]"] ;
490 -> 498 ;
499 [label="Rating Cycle 1 Number of Standard Health Deficiencies <= 0.3\ngini = 0.4\nsamples = 2\nvalue = [[2, 1]\n[1, 2]]"] ;
498 -> 499 ;
500 [label="gini = 0.0\nsamples = 1\nvalue = [[0, 1]\n[1, 0]]"] ;
499 -> 500 ;
501 [label="gini = 0.0\nsamples = 1\nvalue = [[2, 0]\n[0, 2]]"] ;
499 -> 501 ;
502 [label="gini = 0.0\nsamples = 8\nvalue = [[0, 15]\n[15, 0]]"] ;
498 -> 502 ;
503 [label="gini = 0.0\nsamples = 1\nvalue = [[4, 0]\n[0, 4]]"] ;
481 -> 503 ;
504 [label="Reported Licensed Staffing Hours per Resident per Day <= 0.2\ngini = 0.2\nsamples = 9\nvalue = [[2, 12]\n[12, 2]]"] ;
480 -> 504 ;
505 [label="gini = 0.0\nsamples = 8\nvalue = [[0, 12]\n[12, 0]]"] ;
504 -> 505 ;
506 [label="gini = 0.0\nsamples = 1\nvalue = [[2, 0]\n[0, 2]]"] ;
504 -> 506 ;
507 [label="gini = 0.0\nsamples = 11\nvalue = [[0, 15]\n[15, 0]]"] ;
479 -> 507 ;
508 [label="gini = 0.0\nsamples = 1\nvalue = [[4, 0]\n[0, 4]]"] ;
404 -> 508 ;
509 [label="Case-Mix Nurse Aide Staffing Hours per Resident per Day <= 0.5\ngini = 0.5\nsamples = 226\nvalue = [[136, 222]\n[222, 136]]"] ;
403 -> 509 ;
510 [label="Rating Cycle 1 Health Deficiency Score <= 0.1\ngini = 0.3\nsamples = 42\nvalue = [[14, 56]\n[56, 14]]"] ;
509 -> 510 ;
511 [label="Rating Cycle 1 Number of Standard Health Deficiencies <= 0.1\ngini = 0.0\nsamples = 23\nvalue = [[1, 41]\n[41, 1]]"] ;
510 -> 511 ;
512 [label="gini = 0.0\nsamples = 1\nvalue = [[1, 0]\n[0, 1]]"] ;
511 -> 512 ;
513 [label="gini = 0.0\nsamples = 22\nvalue = [[0, 41]\n[41, 0]]"] ;
511 -> 513 ;
514 [label="Case-Mix RN Staffing Hours per Resident per Day <= 0.1\ngini = 0.5\nsamples = 19\nvalue = [[13, 15]\n[15, 13]]"] ;
510 -> 514 ;
515 [label="Rating Cycle 2 Number of Standard Health Deficiencies <= 0.1\ngini = 0.4\nsamples = 9\nvalue = [[9, 3]\n[3, 9]]"] ;
514 -> 515 ;
516 [label="gini = 0.0\nsamples = 2\nvalue = [[0, 2]\n[2, 0]]"] ;
515 -> 516 ;
517 [label="Average Number of Residents Per Day <= 0.1\ngini = 0.2\nsamples = 7\nvalue = [[9, 1]\n[1, 9]]"] ;
515 -> 517 ;
518 [label="gini = 0.0\nsamples = 5\nvalue = [[7, 0]\n[0, 7]]"] ;
517 -> 518 ;
519 [label="Adjusted Total Nurse Staffing Hours per Resident per Day <= 0.2\ngini = 0.4\nsamples = 2\nvalue = [[2, 1]\n[1, 2]]"] ;
517 -> 519 ;
520 [label="gini = 0.0\nsamples = 1\nvalue = [[0, 1]\n[1, 0]]"] ;
519 -> 520 ;
521 [label="gini = 0.0\nsamples = 1\nvalue = [[2, 0]\n[0, 2]]"] ;
519 -> 521 ;
522 [label="Rating Cycle 2 Total Number of Health Deficiencies <= 0.3\ngini = 0.4\nsamples = 10\nvalue = [[4, 12]\n[12, 4]]"] ;
514 -> 522 ;
523 [label="Average Number of Residents Per Day <= 0.1\ngini = 0.1\nsamples = 7\nvalue = [[1, 12]\n[12, 1]]"] ;
522 -> 523 ;
524 [label="gini = 0.0\nsamples = 1\nvalue = [[1, 0]\n[0, 1]]"] ;
523 -> 524 ;
525 [label="gini = 0.0\nsamples = 6\nvalue = [[0, 12]\n[12, 0]]"] ;
523 -> 525 ;
526 [label="gini = 0.0\nsamples = 3\nvalue = [[3, 0]\n[0, 3]]"] ;
522 -> 526 ;
527 [label="Average Number of Residents Per Day <= 0.2\ngini = 0.5\nsamples = 184\nvalue = [[122, 166]\n[166, 122]]"] ;
509 -> 527 ;
528 [label="Rating Cycle 1 Total Health Score <= 0.1\ngini = 0.5\nsamples = 146\nvalue = [[80, 141]\n[141, 80]]"] ;
527 -> 528 ;
529 [label="RN Staffing Rating <= 0.1\ngini = 0.4\nsamples = 122\nvalue = [[59, 129]\n[129, 59]]"] ;
528 -> 529 ;
530 [label="Number of Certified Beds <= 0.1\ngini = 0.5\nsamples = 27\nvalue = [[19, 23]\n[23, 19]]"] ;
529 -> 530 ;
531 [label="Rating Cycle 1 Number of Standard Health Deficiencies <= 0.1\ngini = 0.4\nsamples = 18\nvalue = [[6, 20]\n[20, 6]]"] ;
530 -> 531 ;
532 [label="gini = 0.0\nsamples = 3\nvalue = [[5, 0]\n[0, 5]]"] ;
531 -> 532 ;
533 [label="Total Weighted Health Survey Score <= 0.1\ngini = 0.1\nsamples = 15\nvalue = [[1, 20]\n[20, 1]]"] ;
531 -> 533 ;
534 [label="gini = 0.0\nsamples = 9\nvalue = [[0, 14]\n[14, 0]]"] ;
533 -> 534 ;
535 [label="Rating Cycle 2 Number of Complaint Health Deficiencies <= 0.2\ngini = 0.2\nsamples = 6\nvalue = [[1, 6]\n[6, 1]]"] ;
533 -> 535 ;
536 [label="gini = 0.0\nsamples = 5\nvalue = [[0, 6]\n[6, 0]]"] ;
535 -> 536 ;
537 [label="gini = 0.0\nsamples = 1\nvalue = [[1, 0]\n[0, 1]]"] ;
535 -> 537 ;
538 [label="Total Weighted Health Survey Score <= 0.2\ngini = 0.3\nsamples = 9\nvalue = [[13, 3]\n[3, 13]]"] ;
530 -> 538 ;
539 [label="Total Amount of Fines in Dollars <= 0.0\ngini = 0.4\nsamples = 3\nvalue = [[1, 2]\n[2, 1]]"] ;
538 -> 539 ;
540 [label="gini = 0.0\nsamples = 1\nvalue = [[1, 0]\n[0, 1]]"] ;
539 -> 540 ;
541 [label="gini = 0.0\nsamples = 2\nvalue = [[0, 2]\n[2, 0]]"] ;
539 -> 541 ;
542 [label="Rating Cycle 2 Total Health Score <= 0.2\ngini = 0.1\nsamples = 6\nvalue = [[12, 1]\n[1, 12]]"] ;
538 -> 542 ;
543 [label="gini = 0.0\nsamples = 5\nvalue = [[12, 0]\n[0, 12]]"] ;
542 -> 543 ;
544 [label="gini = 0.0\nsamples = 1\nvalue = [[0, 1]\n[1, 0]]"] ;
542 -> 544 ;
545 [label="Ownership Type_For profit - Individual <= 0.5\ngini = 0.4\nsamples = 95\nvalue = [[40, 106]\n[106, 40]]"] ;
529 -> 545 ;
546 [label="Rating Cycle 2 Number of Standard Health Deficiencies <= 0.4\ngini = 0.4\nsamples = 94\nvalue = [[37, 106]\n[106, 37]]"] ;
545 -> 546 ;
547 [label="Case-Mix LPN Staffing Hours per Resident per Day <= 0.5\ngini = 0.3\nsamples = 87\nvalue = [[28, 101]\n[101, 28]]"] ;
546 -> 547 ;
548 [label="Rating Cycle 2 Total Health Score <= 0.0\ngini = 0.3\nsamples = 85\nvalue = [[25, 101]\n[101, 25]]"] ;
547 -> 548 ;
549 [label="Case-Mix LPN Staffing Hours per Resident per Day <= 0.4\ngini = 0.5\nsamples = 11\nvalue = [[9, 6]\n[6, 9]]"] ;
548 -> 549 ;
550 [label="Case-Mix RN Staffing Hours per Resident per Day <= 0.1\ngini = 0.4\nsamples = 9\nvalue = [[9, 3]\n[3, 9]]"] ;
549 -> 550 ;
551 [label="Reported LPN Staffing Hours per Resident per Day <= 0.2\ngini = 0.4\nsamples = 3\nvalue = [[1, 2]\n[2, 1]]"] ;
550 -> 551 ;
552 [label="gini = 0.0\nsamples = 1\nvalue = [[1, 0]\n[0, 1]]"] ;
551 -> 552 ;
553 [label="gini = 0.0\nsamples = 2\nvalue = [[0, 2]\n[2, 0]]"] ;
551 -> 553 ;
554 [label="Average Number of Residents Per Day <= 0.1\ngini = 0.2\nsamples = 6\nvalue = [[8, 1]\n[1, 8]]"] ;
550 -> 554 ;
555 [label="gini = 0.0\nsamples = 1\nvalue = [[0, 1]\n[1, 0]]"] ;
554 -> 555 ;
556 [label="gini = 0.0\nsamples = 5\nvalue = [[8, 0]\n[0, 8]]"] ;
554 -> 556 ;
557 [label="gini = 0.0\nsamples = 2\nvalue = [[0, 3]\n[3, 0]]"] ;
549 -> 557 ;
558 [label="Case-Mix RN Staffing Hours per Resident per Day <= 0.1\ngini = 0.2\nsamples = 74\nvalue = [[16, 95]\n[95, 16]]"] ;
548 -> 558 ;
559 [label="Rating Cycle 2 Number of Complaint Health Deficiencies <= 0.1\ngini = 0.5\nsamples = 10\nvalue = [[5, 7]\n[7, 5]]"] ;
558 -> 559 ;
560 [label="gini = 0.0\nsamples = 5\nvalue = [[0, 6]\n[6, 0]]"] ;
559 -> 560 ;
561 [label="Case-Mix RN Staffing Hours per Resident per Day <= 0.0\ngini = 0.3\nsamples = 5\nvalue = [[5, 1]\n[1, 5]]"] ;
559 -> 561 ;
562 [label="gini = 0.0\nsamples = 1\nvalue = [[0, 1]\n[1, 0]]"] ;
561 -> 562 ;
563 [label="gini = 0.0\nsamples = 4\nvalue = [[5, 0]\n[0, 5]]"] ;
561 -> 563 ;
564 [label="Rating Cycle 2 Health Revisit Score <= 0.2\ngini = 0.2\nsamples = 64\nvalue = [[11, 88]\n[88, 11]]"] ;
558 -> 564 ;
565 [label="Number of Substantiated Complaints <= 0.0\ngini = 0.2\nsamples = 63\nvalue = [[9, 88]\n[88, 9]]"] ;
564 -> 565 ;
566 [label="gini = 0.0\nsamples = 2\nvalue = [[3, 0]\n[0, 3]]"] ;
565 -> 566 ;
567 [label="Number of Facility Reported Incidents <= 0.6\ngini = 0.1\nsamples = 61\nvalue = [[6, 88]\n[88, 6]]"] ;
565 -> 567 ;
568 [label="RN Staffing Rating <= 0.9\ngini = 0.1\nsamples = 60\nvalue = [[5, 88]\n[88, 5]]"] ;
567 -> 568 ;
569 [label="Adjusted RN Staffing Hours per Resident per Day <= 0.1\ngini = 0.1\nsamples = 57\nvalue = [[3, 86]\n[86, 3]]"] ;
568 -> 569 ;
570 [label="Number of Certified Beds <= 0.1\ngini = 0.4\nsamples = 2\nvalue = [[1, 2]\n[2, 1]]"] ;
569 -> 570 ;
571 [label="gini = 0.0\nsamples = 1\nvalue = [[1, 0]\n[0, 1]]"] ;
570 -> 571 ;
572 [label="gini = 0.0\nsamples = 1\nvalue = [[0, 2]\n[2, 0]]"] ;
570 -> 572 ;
573 [label="Number of Certified Beds <= 0.2\ngini = 0.0\nsamples = 55\nvalue = [[2, 84]\n[84, 2]]"] ;
569 -> 573 ;
574 [label="gini = 0.0\nsamples = 50\nvalue = [[0, 80]\n[80, 0]]"] ;
573 -> 574 ;
575 [label="Number of Certified Beds <= 0.2\ngini = 0.4\nsamples = 5\nvalue = [[2, 4]\n[4, 2]]"] ;
573 -> 575 ;
576 [label="gini = 0.0\nsamples = 1\nvalue = [[2, 0]\n[0, 2]]"] ;
575 -> 576 ;
577 [label="gini = 0.0\nsamples = 4\nvalue = [[0, 4]\n[4, 0]]"] ;
575 -> 577 ;
578 [label="Total Weighted Health Survey Score <= 0.1\ngini = 0.5\nsamples = 3\nvalue = [[2, 2]\n[2, 2]]"] ;
568 -> 578 ;
579 [label="gini = 0.0\nsamples = 2\nvalue = [[0, 2]\n[2, 0]]"] ;
578 -> 579 ;
580 [label="gini = 0.0\nsamples = 1\nvalue = [[2, 0]\n[0, 2]]"] ;
578 -> 580 ;
581 [label="gini = 0.0\nsamples = 1\nvalue = [[1, 0]\n[0, 1]]"] ;
567 -> 581 ;
582 [label="gini = 0.0\nsamples = 1\nvalue = [[2, 0]\n[0, 2]]"] ;
564 -> 582 ;
583 [label="gini = 0.0\nsamples = 2\nvalue = [[3, 0]\n[0, 3]]"] ;
547 -> 583 ;
584 [label="Rating Cycle 2 Number of Standard Health Deficiencies <= 0.5\ngini = 0.5\nsamples = 7\nvalue = [[9, 5]\n[5, 9]]"] ;
546 -> 584 ;
585 [label="gini = 0.0\nsamples = 5\nvalue = [[9, 0]\n[0, 9]]"] ;
584 -> 585 ;
586 [label="gini = 0.0\nsamples = 2\nvalue = [[0, 5]\n[5, 0]]"] ;
584 -> 586 ;
587 [label="gini = 0.0\nsamples = 1\nvalue = [[3, 0]\n[0, 3]]"] ;
545 -> 587 ;
588 [label="Number of Substantiated Complaints <= 0.2\ngini = 0.5\nsamples = 24\nvalue = [[21, 12]\n[12, 21]]"] ;
528 -> 588 ;
589 [label="Rating Cycle 1 Health Revisit Score <= 0.1\ngini = 0.5\nsamples = 16\nvalue = [[11, 12]\n[12, 11]]"] ;
588 -> 589 ;
590 [label="Rating Cycle 1 Total Health Score <= 0.2\ngini = 0.3\nsamples = 8\nvalue = [[9, 2]\n[2, 9]]"] ;
589 -> 590 ;
591 [label="gini = 0.0\nsamples = 5\nvalue = [[8, 0]\n[0, 8]]"] ;
590 -> 591 ;
592 [label="Rating Cycle 1 Total Number of Health Deficiencies <= 0.2\ngini = 0.4\nsamples = 3\nvalue = [[1, 2]\n[2, 1]]"] ;
590 -> 592 ;
593 [label="gini = 0.0\nsamples = 1\nvalue = [[1, 0]\n[0, 1]]"] ;
592 -> 593 ;
594 [label="gini = 0.0\nsamples = 2\nvalue = [[0, 2]\n[2, 0]]"] ;
592 -> 594 ;
595 [label="Reported LPN Staffing Hours per Resident per Day <= 0.3\ngini = 0.3\nsamples = 8\nvalue = [[2, 10]\n[10, 2]]"] ;
589 -> 595 ;
596 [label="Number of Certified Beds <= 0.2\ngini = 0.2\nsamples = 7\nvalue = [[1, 10]\n[10, 1]]"] ;
595 -> 596 ;
597 [label="gini = 0.0\nsamples = 5\nvalue = [[0, 8]\n[8, 0]]"] ;
596 -> 597 ;
598 [label="Rating Cycle 1 Total Health Score <= 0.2\ngini = 0.4\nsamples = 2\nvalue = [[1, 2]\n[2, 1]]"] ;
596 -> 598 ;
599 [label="gini = 0.0\nsamples = 1\nvalue = [[0, 2]\n[2, 0]]"] ;
598 -> 599 ;
600 [label="gini = 0.0\nsamples = 1\nvalue = [[1, 0]\n[0, 1]]"] ;
598 -> 600 ;
601 [label="gini = 0.0\nsamples = 1\nvalue = [[1, 0]\n[0, 1]]"] ;
595 -> 601 ;
602 [label="gini = 0.0\nsamples = 8\nvalue = [[10, 0]\n[0, 10]]"] ;
588 -> 602 ;
603 [label="Rating Cycle 1 Number of Complaint Health Deficiencies <= 0.0\ngini = 0.5\nsamples = 38\nvalue = [[42, 25]\n[25, 42]]"] ;
527 -> 603 ;
604 [label="gini = 0.0\nsamples = 5\nvalue = [[15, 0]\n[0, 15]]"] ;
603 -> 604 ;
605 [label="Number of Certified Beds <= 0.2\ngini = 0.5\nsamples = 33\nvalue = [[27, 25]\n[25, 27]]"] ;
603 -> 605 ;
606 [label="Total Number of Penalties <= 0.6\ngini = 0.3\nsamples = 10\nvalue = [[16, 3]\n[3, 16]]"] ;
605 -> 606 ;
607 [label="Rating Cycle 2 Total Health Score <= 0.2\ngini = 0.2\nsamples = 9\nvalue = [[16, 2]\n[2, 16]]"] ;
606 -> 607 ;
608 [label="Rating Cycle 1 Health Revisit Score <= 0.1\ngini = 0.1\nsamples = 8\nvalue = [[16, 1]\n[1, 16]]"] ;
607 -> 608 ;
609 [label="gini = 0.0\nsamples = 7\nvalue = [[16, 0]\n[0, 16]]"] ;
608 -> 609 ;
610 [label="gini = 0.0\nsamples = 1\nvalue = [[0, 1]\n[1, 0]]"] ;
608 -> 610 ;
611 [label="gini = 0.0\nsamples = 1\nvalue = [[0, 1]\n[1, 0]]"] ;
607 -> 611 ;
612 [label="gini = 0.0\nsamples = 1\nvalue = [[0, 1]\n[1, 0]]"] ;
606 -> 612 ;
613 [label="Case-Mix RN Staffing Hours per Resident per Day <= 0.1\ngini = 0.4\nsamples = 23\nvalue = [[11, 22]\n[22, 11]]"] ;
605 -> 613 ;
614 [label="Reported RN Staffing Hours per Resident per Day <= 0.1\ngini = 0.2\nsamples = 12\nvalue = [[2, 17]\n[17, 2]]"] ;
613 -> 614 ;
615 [label="Number of Substantiated Complaints <= 0.0\ngini = 0.4\nsamples = 6\nvalue = [[2, 5]\n[5, 2]]"] ;
614 -> 615 ;
616 [label="gini = 0.0\nsamples = 1\nvalue = [[1, 0]\n[0, 1]]"] ;
615 -> 616 ;
617 [label="Case-Mix Total Nurse Staffing Hours per Resident per Day <= 0.4\ngini = 0.3\nsamples = 5\nvalue = [[1, 5]\n[5, 1]]"] ;
615 -> 617 ;
618 [label="gini = 0.0\nsamples = 4\nvalue = [[0, 5]\n[5, 0]]"] ;
617 -> 618 ;
619 [label="gini = 0.0\nsamples = 1\nvalue = [[1, 0]\n[0, 1]]"] ;
617 -> 619 ;
620 [label="gini = 0.0\nsamples = 6\nvalue = [[0, 12]\n[12, 0]]"] ;
614 -> 620 ;
621 [label="Number of Certified Beds <= 0.2\ngini = 0.5\nsamples = 11\nvalue = [[9, 5]\n[5, 9]]"] ;
613 -> 621 ;
622 [label="gini = 0.0\nsamples = 2\nvalue = [[0, 3]\n[3, 0]]"] ;
621 -> 622 ;
623 [label="Case-Mix Nurse Aide Staffing Hours per Resident per Day <= 0.7\ngini = 0.3\nsamples = 9\nvalue = [[9, 2]\n[2, 9]]"] ;
621 -> 623 ;
624 [label="gini = 0.0\nsamples = 6\nvalue = [[8, 0]\n[0, 8]]"] ;
623 -> 624 ;
625 [label="Reported Nurse Aide Staffing Hours per Resident per Day <= 0.5\ngini = 0.4\nsamples = 3\nvalue = [[1, 2]\n[2, 1]]"] ;
623 -> 625 ;
626 [label="gini = 0.0\nsamples = 2\nvalue = [[0, 2]\n[2, 0]]"] ;
625 -> 626 ;
627 [label="gini = 0.0\nsamples = 1\nvalue = [[1, 0]\n[0, 1]]"] ;
625 -> 627 ;
628 [label="Rating Cycle 1 Health Deficiency Score <= 0.1\ngini = 0.1\nsamples = 565\nvalue = [[62, 810]\n[810, 62]]"] ;
402 -> 628 ;
629 [label="Reported Physical Therapist Staffing Hours per Resident Per Day <= 0.0\ngini = 0.1\nsamples = 477\nvalue = [[34, 701]\n[701, 34]]"] ;
628 -> 629 ;
630 [label="Total Amount of Fines in Dollars <= 0.0\ngini = 0.3\nsamples = 28\nvalue = [[7, 39]\n[39, 7]]"] ;
629 -> 630 ;
631 [label="Case-Mix LPN Staffing Hours per Resident per Day <= 0.2\ngini = 0.5\nsamples = 4\nvalue = [[4, 4]\n[4, 4]]"] ;
630 -> 631 ;
632 [label="gini = 0.0\nsamples = 2\nvalue = [[0, 4]\n[4, 0]]"] ;
631 -> 632 ;
633 [label="gini = 0.0\nsamples = 2\nvalue = [[4, 0]\n[0, 4]]"] ;
631 -> 633 ;
634 [label="Staffing Rating <= 0.4\ngini = 0.1\nsamples = 24\nvalue = [[3, 35]\n[35, 3]]"] ;
630 -> 634 ;
635 [label="Rating Cycle 2 Total Health Score <= 0.0\ngini = 0.4\nsamples = 7\nvalue = [[3, 7]\n[7, 3]]"] ;
634 -> 635 ;
636 [label="Number of Certified Beds <= 0.1\ngini = 0.5\nsamples = 4\nvalue = [[3, 3]\n[3, 3]]"] ;
635 -> 636 ;
637 [label="gini = 0.0\nsamples = 2\nvalue = [[3, 0]\n[0, 3]]"] ;
636 -> 637 ;
638 [label="gini = 0.0\nsamples = 2\nvalue = [[0, 3]\n[3, 0]]"] ;
636 -> 638 ;
639 [label="gini = 0.0\nsamples = 3\nvalue = [[0, 4]\n[4, 0]]"] ;
635 -> 639 ;
640 [label="gini = 0.0\nsamples = 17\nvalue = [[0, 28]\n[28, 0]]"] ;
634 -> 640 ;
641 [label="Rating Cycle 1 Health Deficiency Score <= 0.0\ngini = 0.1\nsamples = 449\nvalue = [[27, 662]\n[662, 27]]"] ;
629 -> 641 ;
642 [label="gini = 0.0\nsamples = 171\nvalue = [[0, 261]\n[261, 0]]"] ;
641 -> 642 ;
643 [label="Rating Cycle 1 Health Revisit Score <= 0.0\ngini = 0.1\nsamples = 278\nvalue = [[27, 401]\n[401, 27]]"] ;
641 -> 643 ;
644 [label="Number of Substantiated Complaints <= 0.3\ngini = 0.1\nsamples = 273\nvalue = [[24, 398]\n[398, 24]]"] ;
643 -> 644 ;
645 [label="Rating Cycle 1 Number of Standard Health Deficiencies <= 0.0\ngini = 0.1\nsamples = 268\nvalue = [[20, 394]\n[394, 20]]"] ;
644 -> 645 ;
646 [label="Total Weighted Health Survey Score <= 0.0\ngini = 0.5\nsamples = 4\nvalue = [[2, 3]\n[3, 2]]"] ;
645 -> 646 ;
647 [label="gini = 0.0\nsamples = 1\nvalue = [[2, 0]\n[0, 2]]"] ;
646 -> 647 ;
648 [label="gini = 0.0\nsamples = 3\nvalue = [[0, 3]\n[3, 0]]"] ;
646 -> 648 ;
649 [label="Case-Mix Total Nurse Staffing Hours per Resident per Day <= 0.1\ngini = 0.1\nsamples = 264\nvalue = [[18, 391]\n[391, 18]]"] ;
645 -> 649 ;
650 [label="gini = 0.0\nsamples = 1\nvalue = [[1, 0]\n[0, 1]]"] ;
649 -> 650 ;
651 [label="Case-Mix Nurse Aide Staffing Hours per Resident per Day <= 0.6\ngini = 0.1\nsamples = 263\nvalue = [[17, 391]\n[391, 17]]"] ;
649 -> 651 ;
652 [label="Reported Licensed Staffing Hours per Resident per Day <= 0.2\ngini = 0.1\nsamples = 137\nvalue = [[15, 198]\n[198, 15]]"] ;
651 -> 652 ;
653 [label="Reported Licensed Staffing Hours per Resident per Day <= 0.1\ngini = 0.1\nsamples = 108\nvalue = [[7, 162]\n[162, 7]]"] ;
652 -> 653 ;
654 [label="Rating Cycle 2 Number of Complaint Health Deficiencies <= 0.0\ngini = 0.4\nsamples = 4\nvalue = [[2, 6]\n[6, 2]]"] ;
653 -> 654 ;
655 [label="gini = 0.0\nsamples = 3\nvalue = [[0, 6]\n[6, 0]]"] ;
654 -> 655 ;
656 [label="gini = 0.0\nsamples = 1\nvalue = [[2, 0]\n[0, 2]]"] ;
654 -> 656 ;
657 [label="Rating Cycle 1 Number of Complaint Health Deficiencies <= 0.0\ngini = 0.1\nsamples = 104\nvalue = [[5, 156]\n[156, 5]]"] ;
653 -> 657 ;
658 [label="Case-Mix RN Staffing Hours per Resident per Day <= 0.0\ngini = 0.0\nsamples = 80\nvalue = [[1, 124]\n[124, 1]]"] ;
657 -> 658 ;
659 [label="Case-Mix RN Staffing Hours per Resident per Day <= 0.0\ngini = 0.1\nsamples = 9\nvalue = [[1, 13]\n[13, 1]]"] ;
658 -> 659 ;
660 [label="gini = 0.0\nsamples = 8\nvalue = [[0, 13]\n[13, 0]]"] ;
659 -> 660 ;
661 [label="gini = 0.0\nsamples = 1\nvalue = [[1, 0]\n[0, 1]]"] ;
659 -> 661 ;
662 [label="gini = 0.0\nsamples = 71\nvalue = [[0, 111]\n[111, 0]]"] ;
658 -> 662 ;
663 [label="Rating Cycle 1 Total Health Score <= 0.0\ngini = 0.2\nsamples = 24\nvalue = [[4, 32]\n[32, 4]]"] ;
657 -> 663 ;
664 [label="gini = 0.0\nsamples = 9\nvalue = [[0, 15]\n[15, 0]]"] ;
663 -> 664 ;
665 [label="Total Amount of Fines in Dollars <= 0.0\ngini = 0.3\nsamples = 15\nvalue = [[4, 17]\n[17, 4]]"] ;
663 -> 665 ;
666 [label="Rating Cycle 1 Health Deficiency Score <= 0.0\ngini = 0.5\nsamples = 3\nvalue = [[2, 2]\n[2, 2]]"] ;
665 -> 666 ;
667 [label="gini = 0.0\nsamples = 2\nvalue = [[2, 0]\n[0, 2]]"] ;
666 -> 667 ;
668 [label="gini = 0.0\nsamples = 1\nvalue = [[0, 2]\n[2, 0]]"] ;
666 -> 668 ;
669 [label="Adjusted RN Staffing Hours per Resident per Day <= 0.1\ngini = 0.2\nsamples = 12\nvalue = [[2, 15]\n[15, 2]]"] ;
665 -> 669 ;
670 [label="gini = 0.0\nsamples = 7\nvalue = [[0, 10]\n[10, 0]]"] ;
669 -> 670 ;
671 [label="Reported Physical Therapist Staffing Hours per Resident Per Day <= 0.0\ngini = 0.4\nsamples = 5\nvalue = [[2, 5]\n[5, 2]]"] ;
669 -> 671 ;
672 [label="gini = 0.0\nsamples = 1\nvalue = [[1, 0]\n[0, 1]]"] ;
671 -> 672 ;
673 [label="Case-Mix RN Staffing Hours per Resident per Day <= 0.1\ngini = 0.3\nsamples = 4\nvalue = [[1, 5]\n[5, 1]]"] ;
671 -> 673 ;
674 [label="gini = 0.0\nsamples = 3\nvalue = [[0, 5]\n[5, 0]]"] ;
673 -> 674 ;
675 [label="gini = 0.0\nsamples = 1\nvalue = [[1, 0]\n[0, 1]]"] ;
673 -> 675 ;
676 [label="Ownership Type_Government - County <= 0.5\ngini = 0.3\nsamples = 29\nvalue = [[8, 36]\n[36, 8]]"] ;
652 -> 676 ;
677 [label="Rating Cycle 1 Total Health Score <= 0.0\ngini = 0.2\nsamples = 26\nvalue = [[5, 35]\n[35, 5]]"] ;
676 -> 677 ;
678 [label="Rating Cycle 2 Number of Standard Health Deficiencies <= 0.1\ngini = 0.5\nsamples = 2\nvalue = [[3, 2]\n[2, 3]]"] ;
677 -> 678 ;
679 [label="gini = 0.0\nsamples = 1\nvalue = [[0, 2]\n[2, 0]]"] ;
678 -> 679 ;
680 [label="gini = 0.0\nsamples = 1\nvalue = [[3, 0]\n[0, 3]]"] ;
678 -> 680 ;
681 [label="Rating Cycle 2 Total Number of Health Deficiencies <= 0.1\ngini = 0.1\nsamples = 24\nvalue = [[2, 33]\n[33, 2]]"] ;
677 -> 681 ;
682 [label="Overall Rating <= 0.8\ngini = 0.5\nsamples = 4\nvalue = [[2, 3]\n[3, 2]]"] ;
681 -> 682 ;
683 [label="gini = 0.0\nsamples = 2\nvalue = [[2, 0]\n[0, 2]]"] ;
682 -> 683 ;
684 [label="gini = 0.0\nsamples = 2\nvalue = [[0, 3]\n[3, 0]]"] ;
682 -> 684 ;
685 [label="gini = 0.0\nsamples = 20\nvalue = [[0, 30]\n[30, 0]]"] ;
681 -> 685 ;
686 [label="Number of Substantiated Complaints <= 0.0\ngini = 0.4\nsamples = 3\nvalue = [[3, 1]\n[1, 3]]"] ;
676 -> 686 ;
687 [label="gini = 0.0\nsamples = 1\nvalue = [[0, 1]\n[1, 0]]"] ;
686 -> 687 ;
688 [label="gini = 0.0\nsamples = 2\nvalue = [[3, 0]\n[0, 3]]"] ;
686 -> 688 ;
689 [label="Rating Cycle 1 Number of Health Revisits <= 0.2\ngini = 0.0\nsamples = 126\nvalue = [[2, 193]\n[193, 2]]"] ;
651 -> 689 ;
690 [label="Reported Nurse Aide Staffing Hours per Resident per Day <= 0.5\ngini = 0.2\nsamples = 7\nvalue = [[1, 7]\n[7, 1]]"] ;
689 -> 690 ;
691 [label="gini = 0.0\nsamples = 6\nvalue = [[0, 7]\n[7, 0]]"] ;
690 -> 691 ;
692 [label="gini = 0.0\nsamples = 1\nvalue = [[1, 0]\n[0, 1]]"] ;
690 -> 692 ;
693 [label="Number of Certified Beds <= 0.1\ngini = 0.0\nsamples = 119\nvalue = [[1, 186]\n[186, 1]]"] ;
689 -> 693 ;
694 [label="Case-Mix Total Nurse Staffing Hours per Resident per Day <= 0.3\ngini = 0.1\nsamples = 20\nvalue = [[1, 25]\n[25, 1]]"] ;
693 -> 694 ;
695 [label="gini = 0.0\nsamples = 1\nvalue = [[1, 0]\n[0, 1]]"] ;
694 -> 695 ;
696 [label="gini = 0.0\nsamples = 19\nvalue = [[0, 25]\n[25, 0]]"] ;
694 -> 696 ;
697 [label="gini = 0.0\nsamples = 99\nvalue = [[0, 161]\n[161, 0]]"] ;
693 -> 697 ;
698 [label="Adjusted Total Nurse Staffing Hours per Resident per Day <= 0.3\ngini = 0.5\nsamples = 5\nvalue = [[4, 4]\n[4, 4]]"] ;
644 -> 698 ;
699 [label="gini = 0.0\nsamples = 3\nvalue = [[0, 4]\n[4, 0]]"] ;
698 -> 699 ;
700 [label="gini = 0.0\nsamples = 2\nvalue = [[4, 0]\n[0, 4]]"] ;
698 -> 700 ;
701 [label="Adjusted RN Staffing Hours per Resident per Day <= 0.1\ngini = 0.5\nsamples = 5\nvalue = [[3, 3]\n[3, 3]]"] ;
643 -> 701 ;
702 [label="gini = 0.0\nsamples = 2\nvalue = [[3, 0]\n[0, 3]]"] ;
701 -> 702 ;
703 [label="gini = 0.0\nsamples = 3\nvalue = [[0, 3]\n[3, 0]]"] ;
701 -> 703 ;
704 [label="Rating Cycle 1 Number of Complaint Health Deficiencies <= 0.0\ngini = 0.3\nsamples = 88\nvalue = [[28, 109]\n[109, 28]]"] ;
628 -> 704 ;
705 [label="Rating Cycle 1 Total Number of Health Deficiencies <= 0.0\ngini = 0.2\nsamples = 58\nvalue = [[8, 74]\n[74, 8]]"] ;
704 -> 705 ;
706 [label="gini = 0.0\nsamples = 1\nvalue = [[1, 0]\n[0, 1]]"] ;
705 -> 706 ;
707 [label="Adjusted LPN Staffing Hours per Resident per Day <= 0.2\ngini = 0.2\nsamples = 57\nvalue = [[7, 74]\n[74, 7]]"] ;
705 -> 707 ;
708 [label="Adjusted LPN Staffing Hours per Resident per Day <= 0.2\ngini = 0.3\nsamples = 23\nvalue = [[6, 25]\n[25, 6]]"] ;
707 -> 708 ;
709 [label="Case-Mix Total Nurse Staffing Hours per Resident per Day <= 0.3\ngini = 0.2\nsamples = 22\nvalue = [[4, 25]\n[25, 4]]"] ;
708 -> 709 ;
710 [label="Case-Mix RN Staffing Hours per Resident per Day <= 0.1\ngini = 0.3\nsamples = 12\nvalue = [[4, 14]\n[14, 4]]"] ;
709 -> 710 ;
711 [label="gini = 0.0\nsamples = 6\nvalue = [[0, 11]\n[11, 0]]"] ;
710 -> 711 ;
712 [label="Rating Cycle 2 Total Number of Health Deficiencies <= 0.2\ngini = 0.5\nsamples = 6\nvalue = [[4, 3]\n[3, 4]]"] ;
710 -> 712 ;
713 [label="gini = 0.0\nsamples = 4\nvalue = [[4, 0]\n[0, 4]]"] ;
712 -> 713 ;
714 [label="gini = 0.0\nsamples = 2\nvalue = [[0, 3]\n[3, 0]]"] ;
712 -> 714 ;
715 [label="gini = 0.0\nsamples = 10\nvalue = [[0, 11]\n[11, 0]]"] ;
709 -> 715 ;
716 [label="gini = 0.0\nsamples = 1\nvalue = [[2, 0]\n[0, 2]]"] ;
708 -> 716 ;
717 [label="Rating Cycle 2 Total Health Score <= 0.0\ngini = 0.0\nsamples = 34\nvalue = [[1, 49]\n[49, 1]]"] ;
707 -> 717 ;
718 [label="Total Number of Penalties <= 0.4\ngini = 0.1\nsamples = 12\nvalue = [[1, 16]\n[16, 1]]"] ;
717 -> 718 ;
719 [label="gini = 0.0\nsamples = 11\nvalue = [[0, 16]\n[16, 0]]"] ;
718 -> 719 ;
720 [label="gini = 0.0\nsamples = 1\nvalue = [[1, 0]\n[0, 1]]"] ;
718 -> 720 ;
721 [label="gini = 0.0\nsamples = 22\nvalue = [[0, 33]\n[33, 0]]"] ;
717 -> 721 ;
722 [label="Rating Cycle 1 Number of Standard Health Deficiencies <= 0.3\ngini = 0.5\nsamples = 30\nvalue = [[20, 35]\n[35, 20]]"] ;
704 -> 722 ;
723 [label="RN Staffing Rating <= 0.4\ngini = 0.5\nsamples = 24\nvalue = [[20, 21]\n[21, 20]]"] ;
722 -> 723 ;
724 [label="gini = 0.0\nsamples = 6\nvalue = [[0, 10]\n[10, 0]]"] ;
723 -> 724 ;
725 [label="Reported LPN Staffing Hours per Resident per Day <= 0.2\ngini = 0.5\nsamples = 18\nvalue = [[20, 11]\n[11, 20]]"] ;
723 -> 725 ;
726 [label="Number of Substantiated Complaints <= 0.1\ngini = 0.1\nsamples = 5\nvalue = [[12, 1]\n[1, 12]]"] ;
725 -> 726 ;
727 [label="gini = 0.0\nsamples = 4\nvalue = [[12, 0]\n[0, 12]]"] ;
726 -> 727 ;
728 [label="gini = 0.0\nsamples = 1\nvalue = [[0, 1]\n[1, 0]]"] ;
726 -> 728 ;
729 [label="Short-Stay QM Rating <= 0.6\ngini = 0.5\nsamples = 13\nvalue = [[8, 10]\n[10, 8]]"] ;
725 -> 729 ;
730 [label="gini = 0.0\nsamples = 5\nvalue = [[0, 7]\n[7, 0]]"] ;
729 -> 730 ;
731 [label="Case-Mix RN Staffing Hours per Resident per Day <= 0.1\ngini = 0.4\nsamples = 8\nvalue = [[8, 3]\n[3, 8]]"] ;
729 -> 731 ;
732 [label="gini = 0.0\nsamples = 4\nvalue = [[6, 0]\n[0, 6]]"] ;
731 -> 732 ;
733 [label="Average Number of Residents Per Day <= 0.1\ngini = 0.5\nsamples = 4\nvalue = [[2, 3]\n[3, 2]]"] ;
731 -> 733 ;
734 [label="gini = 0.0\nsamples = 1\nvalue = [[2, 0]\n[0, 2]]"] ;
733 -> 734 ;
735 [label="gini = 0.0\nsamples = 3\nvalue = [[0, 3]\n[3, 0]]"] ;
733 -> 735 ;
736 [label="gini = 0.0\nsamples = 6\nvalue = [[0, 14]\n[14, 0]]"] ;
722 -> 736 ;
}